tree
version=v4
num_class=1
num_tree_per_iteration=1
label_index=0
max_feature_idx=6
objective=binary sigmoid:1
feature_names=Column_0 Column_1 Column_2 Column_3 Column_4 Column_5 Column_6
feature_infos=[-3.381509144852286:2.9611970387754045] [-3.1266173753296829:2.4004539700862924] [-2.7979667002524451:3.114852309021789] [-3.6625578213660921:3.0672598420625241] [-3.4352210787190214:3.2301889358242915] [-3.490579800441743:3.1251567974983709] [-2.507648165621196:2.4223540103279575]
tree_sizes=850 863 861 863 862 873 767 871 765 768 971 972 974 862 972 866 861 865 864 867 860 864 867 973 869 874 866 872 862 766 766 764 763 762 868 867 872 865 872 867 865 863 871 972 867 865 869 865 869 970 972 978 973 974 974 872 871 870 866 870 869 865 872 868 868 968 867 765 968 968 868 865 866 765 869 977 975 971 976 973 971 864 973 870 861 863 869 871 866 871 867 869 870 867 866 867

Tree=0
num_leaves=7
num_cat=0
split_feature=6 6 6 2 3 1
split_gain=18.2383 9.48889 5.24335 2.97687 1.15327 0.651713
threshold=0.86118665461072497 -0.78214740403899186 0.3681864370158105 0.39908078732025137 0.21482630450410342 -0.64222672006694659
decision_type=2 2 2 2 2 2
left_child=1 5 3 -3 -2 -1
right_child=4 2 -4 -5 -6 -7
leaf_value=-0.22155115501376516 -0.24922013048771621 -0.24178601784050202 -0.22816836394321571 -0.23316875729187442 -0.2426080591428382 -0.22638644411007081
leaf_weight=6.4111990630626678 5.6714453250169736 9.1236294358968788 8.1372911185026151 7.1509528011083594 4.931691586971283 4.9316915869712812
leaf_count=26 23 37 33 29 20 20
internal_value=-0.23484 -0.231211 -0.234723 -0.238 -0.246145 -0.223653
internal_weight=0 35.7548 24.4119 16.2746 10.6031 11.3429
internal_count=188 145 99 66 43 46
is_linear=0
shrinkage=1


Tree=1
num_leaves=7
num_cat=0
split_feature=6 6 6 2 3 1
split_gain=17.8916 9.28412 5.13687 2.92057 1.13495 0.636368
threshold=0.86118665461072497 -0.78214740403899186 0.3681864370158105 0.39908078732025137 0.21482630450410342 -0.64222672006694659
decision_type=2 2 2 2 2 2
left_child=1 5 3 -3 -2 -1
right_child=4 2 -4 -5 -6 -7
leaf_value=0.013135603557435146 -0.014261533702234827 -0.0068826584224303258 0.0065994128932411033 0.0016538017147043171 -0.0076979197709854258 0.0083604571507365031
leaf_weight=6.4208852052688599 5.6616320312023145 9.116116285324102 8.1435494720935804 7.1523447036743155 4.9271425604820251 4.9364796280860883
leaf_count=26 23 37 33 29 20 20
internal_value=0 0.00359082 0.000115848 -0.00312965 -0.0112074 0.0110601
internal_weight=0 35.7694 24.412 16.2685 10.5888 11.3574
internal_count=188 145 99 66 43 46
is_linear=0
shrinkage=0.01


Tree=2
num_leaves=7
num_cat=0
split_feature=6 6 6 2 3 1
split_gain=17.5524 9.08468 5.03267 2.86538 1.11723 0.621594
threshold=0.86118665461072497 -0.78214740403899186 0.3681864370158105 0.39908078732025137 0.21482630450410342 -0.64222672006694659
decision_type=2 2 2 2 2 2
left_child=1 5 3 -3 -2 -1
right_child=4 2 -4 -5 -6 -7
leaf_value=0.012985877557324306 -0.014144738316426984 -0.0068195844901170945 0.0065285684534318114 0.0016369490577003497 -0.0076281731412501542 0.0082691604108639134
leaf_weight=6.4299227893352509 5.6513485163450223 9.108464747667318 8.1495688408613187 7.1537128388881674 4.9224942922592163 4.941048324108122
leaf_count=26 23 37 33 29 20 20
internal_value=0 0.00355355 0.000114672 -0.00309957 -0.011111 0.0109363
internal_weight=0 35.7827 24.4117 16.2622 10.5738 11.371
internal_count=188 145 99 66 43 46
is_linear=0
shrinkage=0.01


Tree=3
num_leaves=7
num_cat=0
split_feature=6 6 6 2 3 1
split_gain=17.2205 8.89037 4.93071 2.81129 1.10007 0.607362
threshold=0.86118665461072497 -0.78214740403899186 0.3681864370158105 0.39908078732025137 0.21482630450410342 -0.64222672006694659
decision_type=2 2 2 2 2 2
left_child=1 5 3 -3 -2 -1
right_child=4 2 -4 -5 -6 -7
leaf_value=0.012839146604060367 -0.014030082547248754 -0.0067571926731935473 0.0064586736161117136 0.0016202735714530123 -0.0075592116322936807 0.0081792225753614875
leaf_weight=6.4383296370506287 5.6406105458736402 9.1006803363561684 8.1553556174039823 7.1550576388835898 4.9177509546279907 4.9454033374786359
leaf_count=26 23 37 33 29 20 20
internal_value=0 0.0035168 0.000113509 -0.0030698 -0.0110162 0.0108147
internal_weight=0 35.7948 24.4111 16.2557 10.5584 11.3837
internal_count=188 145 99 66 43 46
is_linear=0
shrinkage=0.01


Tree=4
num_leaves=7
num_cat=0
split_feature=6 6 6 2 3 0
split_gain=16.8957 8.70103 4.83092 2.75826 1.08346 0.483837
threshold=0.86118665461072497 -0.78214740403899186 0.3681864370158105 0.39908078732025137 0.21482630450410342 -0.4129751461195586
decision_type=2 2 2 2 2 2
left_child=1 5 3 -3 -2 -1
right_child=4 2 -4 -5 -6 -7
leaf_value=0.012846021441736124 -0.013917496011540282 -0.0066954711111366786 0.0063897093042844088 0.001603772467185402 -0.0074910212379584538 0.0087211746468857793
leaf_weight=5.4539616107940674 5.6294342279434186 9.0927685648202949 8.1609147191047651 7.1563799679279319 4.9129164218902588 5.9417116045951825
leaf_count=22 23 37 33 29 20 24
internal_value=0 0.00348054 0.00011236 -0.00304035 -0.0109226 0.0106953
internal_weight=0 35.8057 24.4101 16.2491 10.5424 11.3957
internal_count=188 145 99 66 43 46
is_linear=0
shrinkage=0.01


Tree=5
num_leaves=7
num_cat=0
split_feature=1 2 4 4 4 3
split_gain=12.6015 9.38754 6.51458 2.47364 2.64233 0.174526
threshold=-0.4189107061107456 -0.21970259737123823 0.91911819636703651 -1.0000000180025095e-35 0.28610852201531883 0.69693817805248914
decision_type=2 2 2 2 2 2
left_child=1 -1 3 -2 -5 -6
right_child=2 -3 -4 4 5 -7
leaf_value=-0.00094509031272369307 -0.010615885419048935 0.014589442747402922 0.0063009253941518767 0.0015198930412573994 -0.0082921074167960039 -0.0056628764101376572
leaf_weight=7.6430322825908661 8.5843646824359912 7.9221739172935468 4.9375101923942557 5.6679021716117886 5.1794296801090223 4.9256012588739395
leaf_count=31 35 32 20 23 21 20
internal_value=0 0.00696147 -0.00417298 -0.00629616 -0.00394517 -0.00701051
internal_weight=0 15.5652 29.2948 24.3573 15.7729 10.105
internal_count=182 63 119 99 64 41
is_linear=0
shrinkage=0.01


Tree=6
num_leaves=6
num_cat=0
split_feature=1 2 4 4 5
split_gain=12.3488 9.18278 6.38859 2.43178 2.7636
threshold=-0.4189107061107456 -0.21970259737123823 0.91911819636703651 -1.0000000180025095e-35 0.45837386316386969
decision_type=2 2 2 2 2
left_child=1 -1 3 -2 -5
right_child=2 -3 -4 4 -6
leaf_value=-0.00093574100913887761 -0.010525313661575069 0.014423714437315141 0.0062335911520105007 2.4114680276473129e-05 -0.0083660623176039471
leaf_weight=7.6422032564878464 8.5717150121927279 7.9330122470855695 4.940918341279029 8.3777088820934313 7.3878149390220633
leaf_count=31 35 32 20 34 30
internal_value=0 0.00688738 -0.00413364 -0.00623838 -0.00390757
internal_weight=0 15.5752 29.2782 24.3372 15.7655
internal_count=182 63 119 99 64
is_linear=0
shrinkage=0.01


Tree=7
num_leaves=7
num_cat=0
split_feature=1 2 4 4 4 3
split_gain=12.1017 8.98399 6.26519 2.39084 2.55763 0.17687
threshold=-0.4189107061107456 -0.21970259737123823 0.91911819636703651 -1.0000000180025095e-35 0.28610852201531883 0.69693817805248914
decision_type=2 2 2 2 2 2
left_child=1 -1 3 -2 -5 -6
right_child=2 -3 -4 4 5 -7
leaf_value=-0.00092648422028499921 -0.010435955085695446 0.014261577447512233 0.0061671411490457307 0.0015041780786570805 -0.0081812979182995602 -0.0055323602364391357
leaf_weight=7.6413793414831161 8.5587251782417315 7.9429183453321439 4.9441973268985739 5.6689344793558147 5.1719895899295789 4.9170078933238983
leaf_count=31 35 32 20 23 21 20
internal_value=0 0.00681448 -0.00409476 -0.00618126 -0.00387038 -0.0068903
internal_weight=0 15.5843 29.2609 24.3167 15.7579 10.089
internal_count=182 63 119 99 64 41
is_linear=0
shrinkage=0.01


Tree=8
num_leaves=6
num_cat=0
split_feature=1 2 4 4 5
split_gain=11.8601 8.79092 6.1443 2.35079 2.68449
threshold=-0.4189107061107456 -0.21970259737123823 0.91911819636703651 -1.0000000180025095e-35 0.45837386316386969
decision_type=2 2 2 2 2
left_child=1 -1 3 -2 -5
right_child=2 -3 -4 4 -6
leaf_value=-0.00091731811918275424 -0.010347776762136964 0.01410289976220055 0.0061015600596160914 4.0142182165797213e-05 -0.0082335220099575401
leaf_weight=7.6405602395534515 8.5454083383083361 7.951918348670004 4.9473498761653891 8.3760018795728701 7.3742218017578116
leaf_count=31 35 32 20 34 30
internal_value=0 0.00674276 -0.00405632 -0.00612479 -0.00383357
internal_weight=0 15.5925 29.243 24.2956 15.7502
internal_count=182 63 119 99 64
is_linear=0
shrinkage=0.01


Tree=9
num_leaves=6
num_cat=0
split_feature=1 4 4 4 5
split_gain=11.6238 6.91196 6.02588 2.3116 2.63523
threshold=-0.4189107061107456 -0.58879504993400522 0.91911819636703651 -1.0000000180025095e-35 0.45837386316386969
decision_type=2 2 2 2 2
left_child=1 -1 3 -2 -5
right_child=2 -3 -4 4 -6
leaf_value=-0.00034132256956677745 -0.010260748966507501 0.012989711928776683 0.0060368290202732445 3.9740464278320076e-05 -0.0081599949683633429
leaf_weight=7.3927015215158454 8.5317769497632998 8.2070821523666364 4.9503791630268088 8.3760420829057711 7.3663014322519293
leaf_count=30 35 33 20 34 30
internal_value=0 0.00667217 -0.00401834 -0.00606895 -0.00379715
internal_weight=0 15.5998 29.2245 24.2741 15.7423
internal_count=182 63 119 99 64
is_linear=0
shrinkage=0.01


Tree=10
num_leaves=8
num_cat=0
split_feature=6 2 0 2 1 6 2
split_gain=12.3724 4.23008 3.2138 6.41639 6.21329 3.04701 2.02569
threshold=0.69685324874575405 1.0866178814219067 -0.81861333228179445 -0.15094888796107273 -0.36308170262169531 -0.28914718644407661 -0.90723969147289329
decision_type=2 2 2 2 2 2 2
left_child=1 2 -1 -4 -5 -6 -2
right_child=6 -3 3 4 5 -7 -8
leaf_value=0.0093899473238487317 -0.011865807781308663 0.012356225022958862 -0.0086341177111010602 0.011788162047773372 -0.0062758023278407672 0.0047214869288958556 -0.0040415602395366514
leaf_weight=5.440101981163024 5.597842961549758 5.2064973860979071 5.4169960170984295 6.2199719399213835 5.173515990376476 4.9110306501388514 8.0924427062273008
leaf_count=22 23 21 22 25 21 20 33
internal_value=0 0.00409926 0.00251652 0.000795085 0.00392783 -0.000920279 -0.00724083
internal_weight=0 32.3681 27.1616 21.7215 16.3045 10.0845 13.6903
internal_count=187 131 110 88 66 41 56
is_linear=0
shrinkage=0.01


Tree=11
num_leaves=8
num_cat=0
split_feature=6 2 0 2 1 6 2
split_gain=12.1327 4.13884 3.14571 6.29232 6.08385 2.98722 1.99332
threshold=0.69685324874575405 1.0866178814219067 -0.81861333228179445 -0.15094888796107273 -0.36308170262169531 -0.28914718644407661 -0.90723969147289329
decision_type=2 2 2 2 2 2 2
left_child=1 2 -1 -4 -5 -6 -2
right_child=6 -3 3 4 5 -7 -8
leaf_value=0.0092874293968968711 -0.011770190467651558 0.012219640922605133 -0.008556847272814725 0.01166149108513749 -0.0062177808540694966 0.0046713756185877298 -0.0040033535276737557
leaf_weight=5.4451246112585059 5.586939573287963 5.2120173126459113 5.4112822115421322 6.2246361374855086 5.1695947349071538 4.9140601158142054 8.0880000591278058
leaf_count=22 23 21 22 25 21 20 33
internal_value=0 0.00405715 0.00249104 0.000787172 0.00388763 -0.000911176 -0.00717652
internal_weight=0 32.3767 27.1647 21.7196 16.3083 10.0837 13.6749
internal_count=187 131 110 88 66 41 56
is_linear=0
shrinkage=0.01


Tree=12
num_leaves=8
num_cat=0
split_feature=6 2 0 2 1 6 2
split_gain=11.898 4.05006 3.07924 6.17084 5.95765 2.92865 1.96171
threshold=0.69685324874575405 1.0866178814219067 -0.81861333228179445 -0.15094888796107273 -0.36308170262169531 -0.28914718644407661 -0.90723969147289329
decision_type=2 2 2 2 2 2 2
left_child=1 2 -1 -4 -5 -6 -2
right_child=6 -3 3 4 5 -7 -8
leaf_value=0.0091865198981530092 -0.011675951777251226 0.012085614709756729 -0.0084804963069645654 0.011537063247354526 -0.0061603703402735013 0.0046218770523353166 -0.0039655188212967844
leaf_weight=5.4498630911111823 5.5757683664560309 5.2170932292938224 5.4054301083087948 6.2288297563791319 5.1656140387058294 4.9170063436031306 8.0835379213094694
leaf_count=22 23 21 22 25 21 20 33
internal_value=0 0.00401566 0.00246591 0.000779365 0.00384798 -0.000902176 -0.00711294
internal_weight=0 32.3838 27.1667 21.7169 16.3115 10.0826 13.6593
internal_count=187 131 110 88 66 41 56
is_linear=0
shrinkage=0.01


Tree=13
num_leaves=7
num_cat=0
split_feature=2 0 1 2 1 4
split_gain=9.31114 7.2737 6.29628 3.24194 1.81191 1.0466
threshold=-0.15094888796107273 -0.81861333228179445 -0.36308170262169531 0.67409562496091346 0.47435334971405851 1.1002272216538131
decision_type=2 2 2 2 2 2
left_child=1 -1 -2 -4 -3 -5
right_child=2 4 3 5 -6 -7
leaf_value=0.0046057664873023589 0.012217547952303356 -0.0046578418259502112 -0.0040154585846513095 0.0082826621314680791 -0.011644856749708566 0.0017789773631149831
leaf_weight=6.6488964855670956 7.9799211174249676 7.8186236470937711 6.6224317103624371 4.938123866915701 7.0655925124883652 4.9593300372362137
leaf_count=27 32 32 27 20 29 20
internal_value=0 -0.00409009 0.00492356 0.00140021 -0.0079746 0.00502385
internal_weight=0 21.5331 24.4998 16.5199 14.8842 9.89745
internal_count=187 88 99 67 61 40
is_linear=0
shrinkage=0.01


Tree=14
num_leaves=8
num_cat=0
split_feature=6 2 0 2 1 6 2
split_gain=11.4774 3.94021 2.9891 5.95686 5.71814 2.89392 1.94181
threshold=0.69685324874575405 1.0866178814219067 -0.81861333228179445 -0.15094888796107273 -0.36308170262169531 -0.28914718644407661 -0.90723969147289329
decision_type=2 2 2 2 2 2 2
left_child=1 2 -1 -4 -5 -6 -2
right_child=6 -3 3 4 5 -7 -8
leaf_value=0.0090267351970402532 -0.011546266741476146 0.011893652030946139 -0.0083608094292140483 0.011286246391326369 -0.0061256819944899921 0.0045929495302301591 -0.0038658248921815551
leaf_weight=5.4566958993673316 5.5591817647218695 5.2235380858182898 5.3958798646926907 6.2360743880271956 5.162917166948322 4.9185299277305568 8.070877328515051
leaf_count=22 23 21 22 25 21 20 33
internal_value=0 0.00393952 0.00241031 0.000747562 0.00375952 -0.000896283 -0.00699838
internal_weight=0 32.3936 27.1701 21.7134 16.3175 10.0814 13.6301
internal_count=187 131 110 88 66 41 56
is_linear=0
shrinkage=0.01


Tree=15
num_leaves=7
num_cat=0
split_feature=6 1 2 6 2 2
split_gain=12.1682 3.54429 7.99187 5.08337 6.04471 1.64811
threshold=0.69685324874575405 -0.4189107061107456 -0.21970259737123823 0.20385303115083775 0.6053419155507479 -0.90723969147289329
decision_type=2 2 2 2 2 2
left_child=1 2 -1 4 -3 -2
right_child=5 3 -4 -5 -6 -7
leaf_value=-0.00084254922122381796 -0.011885279595805629 -0.011543001510460628 0.014062824968734247 0.0087825387449109778 0.0026736972885986797 -0.0049715744206168411
leaf_weight=6.922543466091156 6.0283048301935187 5.1284119337797183 7.4884106218814868 4.9105467498302451 7.1749363988637924 8.0553327798843366
leaf_count=28 25 21 30 20 29 33
internal_value=0 0.00324394 0.00690278 0.000180866 -0.00325226 -0.00793089
internal_weight=0 31.6248 14.411 17.2139 12.3033 14.0836
internal_count=186 128 58 70 50 58
is_linear=0
shrinkage=0.01


Tree=16
num_leaves=7
num_cat=0
split_feature=6 6 6 2 4 2
split_gain=11.9382 3.42353 5.7894 2.93633 1.63085 1.61029
threshold=0.69685324874575405 -0.78214740403899186 0.20385303115083775 0.39908078732025137 0.21012743162678124 0.6053419155507479
decision_type=2 2 2 2 2 2
left_child=1 5 3 -3 -2 -1
right_child=4 2 -4 -5 -6 -7
leaf_value=0.0041716155443806439 -0.010350437223061122 -0.0076863200335187962 0.0077083111308298737 0.0020803954107281976 -0.0032015201078637334 0.011633893411894474
leaf_weight=6.4734634459018725 9.1697307974100095 7.0964076220989245 7.3931124061346045 5.4365437924861908 4.8942527920007697 5.226453110575676
leaf_count=26 38 29 30 22 20 21
internal_value=0 0.00321135 0.000690217 -0.00344971 -0.00786262 0.00750508
internal_weight=0 31.626 19.9261 12.533 14.064 11.6999
internal_count=186 128 81 51 58 47
is_linear=0
shrinkage=0.01


Tree=17
num_leaves=7
num_cat=0
split_feature=6 6 6 2 2 2
split_gain=11.7124 3.35331 5.67127 2.88161 1.61143 1.57632
threshold=0.69685324874575405 -0.78214740403899186 0.20385303115083775 0.39908078732025137 -0.90723969147289329 0.6053419155507479
decision_type=2 2 2 2 2 2
left_child=1 5 3 -3 -2 -1
right_child=4 2 -4 -5 -6 -7
leaf_value=0.0041289860042305841 -0.011715590881408909 -0.0076178444473783951 0.0076246633998187079 0.002059151584760882 -0.0048683889959238152 0.011510524998929347
leaf_weight=6.4748869240283984 6.0029262155294409 7.0886333435773867 7.3994451761245719 5.4376989156007767 8.0410778224468213 5.2296285331249237
leaf_count=26 25 29 30 22 33 21
internal_value=0 0.00317878 0.000683297 -0.00341705 -0.00779514 0.00742709
internal_weight=0 31.6303 19.9258 12.5263 14.044 11.7045
internal_count=186 128 81 51 58 47
is_linear=0
shrinkage=0.01


Tree=18
num_leaves=7
num_cat=0
split_feature=6 1 2 6 2 4
split_gain=11.4911 3.46434 7.73846 4.86377 5.75224 1.59269
threshold=0.69685324874575405 -0.4189107061107456 -0.21970259737123823 0.20385303115083775 0.6053419155507479 0.21012743162678124
decision_type=2 2 2 2 2 2
left_child=1 2 -1 4 -3 -2
right_child=5 3 -4 -5 -6 -7
leaf_value=-0.00085927518295306974 -0.01019351861425455 -0.011356499320105998 0.013806011196685676 0.008515269103140639 0.0025234201046500765 -0.0031213134876151554
leaf_weight=6.9223447293043137 9.1355529278516752 5.1093966364860552 7.4926318228244799 4.9253928810358039 7.1839691400527954 4.8882359415292731
leaf_count=28 38 21 30 20 29 20
internal_value=0 0.00314663 0.00676346 0.000118729 -0.00324538 -0.00772838
internal_weight=0 31.6337 14.415 17.2188 12.2934 14.0238
internal_count=186 128 58 70 50 58
is_linear=0
shrinkage=0.01


Tree=19
num_leaves=7
num_cat=0
split_feature=1 2 0 1 5 0
split_gain=7.92146 9.4596 7.14414 3.59869 1.91231 1.18763
threshold=-0.4189107061107456 -0.21970259737123823 0.47205362368895637 0.47435334971405851 0.86153063886251802 -0.19171795366742986
decision_type=2 2 2 2 2 2
left_child=1 -1 3 5 -4 -2
right_child=2 -3 4 -5 -6 -7
leaf_value=-0.0016987324802732958 -0.00029035430940077919 0.013664256585723331 0.0065483059026583195 -0.013612669234063351 -0.00140924156258864 -0.0068211065969963781
leaf_weight=8.6150319278240222 4.8216342180967358 7.4946469515562049 6.1496017128229123 6.0296325981616965 5.9340654462575912 6.5908362269401577
leaf_count=35 20 30 25 25 24 27
internal_value=0 0.00544853 -0.00326932 -0.00736357 0.0026405 -0.00406194
internal_weight=0 16.1097 29.5258 17.4421 12.0837 11.4125
internal_count=186 65 121 72 49 47
is_linear=0
shrinkage=0.01


Tree=20
num_leaves=7
num_cat=0
split_feature=1 0 4 3 1 1
split_gain=5.46654 4.0795 3.56502 2.71667 2.65821 0.301933
threshold=0.30686633924690782 0.47205362368895637 -0.58879504993400522 -1.0145219444825631 -0.4189107061107456 0.976814381115511
decision_type=2 2 2 2 2 2
left_child=2 -2 3 -1 -4 -3
right_child=1 5 4 -5 -6 -7
leaf_value=0.0030129374193362665 -0.0090989675525298963 0.0020360217279453943 0.010037094431245201 -0.0071676945416275749 0.00215293405608909 -0.0014648159042404149
leaf_weight=5.666568860411644 8.7211935073137301 4.9428718835115415 7.7399814426898983 4.877041697502138 9.5563964396715146 4.9115411192178726
leaf_count=23 36 20 31 20 39 20
internal_value=0 -0.00411747 0.00288711 -0.00169621 0.00568103 0.000291168
internal_weight=0 18.5756 27.84 10.5436 17.2964 9.85441
internal_count=189 76 113 43 70 40
is_linear=0
shrinkage=0.01


Tree=21
num_leaves=7
num_cat=0
split_feature=6 3 3 0 5 2
split_gain=7.33829 4.58714 3.58394 3.01323 2.21399 2.13679
threshold=0.86118665461072497 0.21482630450410342 -0.41145010266038923 -0.98455622662089104 0.58394728510279303 -0.90723969147289329
decision_type=2 2 2 2 2 2
left_child=1 2 3 -1 -3 -2
right_child=5 4 -4 -5 -6 -7
leaf_value=0.0078287826990932549 -0.012209534477013355 -0.006600828961896601 0.010182248864618534 -0.0022470823634793843 0.0012404670698499326 -0.0031694411568850937
leaf_weight=4.953119277954098 4.75879767537117 6.1597868502140036 8.6542853116989154 7.4056672006845492 8.667582690715788 5.8031137436628324
leaf_count=20 20 25 35 30 35 24
internal_value=0 0.00224182 0.00524701 0.00179109 -0.00201707 -0.00724257
internal_weight=0 35.8404 21.0131 12.3588 14.8274 10.5619
internal_count=189 145 85 50 60 44
is_linear=0
shrinkage=0.01


Tree=22
num_leaves=7
num_cat=0
split_feature=1 0 4 3 1 1
split_gain=5.27744 3.96143 3.46729 2.62871 2.59562 0.294568
threshold=0.30686633924690782 0.47205362368895637 -0.58879504993400522 -1.0145219444825631 -0.4189107061107456 0.976814381115511
decision_type=2 2 2 2 2 2
left_child=2 -2 3 -1 -4 -3
right_child=1 5 4 -5 -6 -7
leaf_value=0.0029416338316867979 -0.0089688187701154089 0.0020145978858430737 0.0098939923153744998 -0.0070766496420294894 0.0021045171127124203 -0.0014434182433368842
leaf_weight=5.6690288931131363 8.6965366601943987 4.9438086897134763 7.7409730106592205 4.8683211356401461 9.5620681196451169 4.9098238945007324
leaf_count=23 36 20 31 20 39 20
internal_value=0 -0.00404982 0.00283536 -0.00168688 0.00558934 0.000291553
internal_weight=0 18.5502 27.8404 10.5374 17.303 9.85363
internal_count=189 76 113 43 70 40
is_linear=0
shrinkage=0.01


Tree=23
num_leaves=8
num_cat=0
split_feature=6 2 2 1 6 2 1
split_gain=7.1134 3.83757 5.19489 5.89401 5.24225 2.1008 0.542997
threshold=0.86118665461072497 -0.70097856324239671 -0.15094888796107273 -0.36308170262169531 -0.1248137805791049 -0.90723969147289329 0.30686633924690782
decision_type=2 2 2 2 2 2 2
left_child=1 -1 -3 -4 6 -2 -5
right_child=5 2 3 4 -6 -7 -8
leaf_value=0.010400533528935533 -0.012080250888697651 -0.005838379565803558 0.010639205185676745 -0.0019596359254870615 0.0082331994339772049 -0.0031040989081392517 -0.0065926722027829518
leaf_weight=4.9276682436466208 4.739607110619545 8.3535331189632398 7.4952719956636455 4.9383392184972745 4.9394044280052212 5.7957993000745756 5.1864821016788483
leaf_count=20 20 34 30 20 20 24 21
internal_value=0 0.00220476 0.000898314 0.00339284 -0.000212624 -0.00714224 -0.00433293
internal_weight=0 35.8407 30.913 22.5595 15.0642 10.5354 10.1248
internal_count=189 145 125 91 61 44 41
is_linear=0
shrinkage=0.01


Tree=24
num_leaves=7
num_cat=0
split_feature=6 3 3 0 5 2
split_gain=6.98024 4.37977 3.47305 2.90777 2.14916 2.07001
threshold=0.86118665461072497 0.21482630450410342 -0.41145010266038923 -0.98455622662089104 0.58394728510279303 -0.90723969147289329
decision_type=2 2 2 2 2 2
left_child=1 2 3 -1 -3 -2
right_child=5 4 -4 -5 -6 -7
leaf_value=0.0076397803919014693 -0.011992910747242371 -0.0065020950141596147 0.0099740267458775095 -0.002255134644843389 0.0012269689697488482 -0.0030748223245922746
leaf_weight=4.9604787677526438 4.7264486998319626 6.1501691043376914 8.6600010842084902 7.4007063657045382 8.6681581288576108 5.7924897074699384
leaf_count=20 20 25 35 30 35 24
internal_value=0 0.00218276 0.00511781 0.00171564 -0.00198089 -0.00708197
internal_weight=0 35.8395 21.0212 12.3612 14.8183 10.5189
internal_count=189 145 85 50 60 44
is_linear=0
shrinkage=0.01


Tree=25
num_leaves=7
num_cat=0
split_feature=6 0 3 3 3 3
split_gain=10.8196 2.44965 1.75209 4.54135 4.37417 0.895817
threshold=0.86118665461072497 -0.81861333228179445 -0.42231181409721924 0.11336804540098692 0.47649480730046223 -0.037708486402193812
decision_type=2 2 2 2 2 2
left_child=1 -1 -3 -4 -5 -2
right_child=5 2 3 4 -6 -7
leaf_value=0.0088508933279550315 -0.012127241287214983 -0.0030607124724534034 0.0094136803158214894 -0.0071970631659848822 0.0040463896712943518 -0.0062577503366142897
leaf_weight=5.4573198705911627 4.7460266351699829 6.4172841608524314 7.1504172384738984 5.6542939841747275 8.9168435186147672 5.7513340413570386
leaf_count=22 20 26 29 23 36 24
internal_value=0 0.00271933 0.00153016 0.00288646 -0.000316604 -0.00891144
internal_weight=0 33.5962 28.1388 21.7216 14.5711 10.4974
internal_count=180 136 114 88 59 44
is_linear=0
shrinkage=0.01


Tree=26
num_leaves=7
num_cat=0
split_feature=6 0 2 1 6 2
split_gain=10.6199 2.39855 3.11688 4.48995 4.45422 0.96149
threshold=0.86118665461072497 -0.81861333228179445 -0.15094888796107273 -0.36308170262169531 -0.45348059230904841 -0.90723969147289329
decision_type=2 2 2 2 2 2
left_child=1 -1 -3 -4 -5 -2
right_child=5 2 3 4 -6 -7
leaf_value=0.0087566952692462036 -0.012047738053702732 -0.0035184248426391343 0.011146290460010701 -0.0050516350641927558 0.0062966576544871136 -0.00597902697936783
leaf_weight=5.4608473032712928 4.9383525103330612 8.5608148872852308 5.745279103517535 6.9089428633451462 6.9257989376783389 5.5387262552976591
leaf_count=22 21 35 23 28 28 23
internal_value=0 0.00269168 0.00151473 0.00371534 0.000629425 -0.0088395
internal_weight=0 33.6017 28.1408 19.58 13.8347 10.4771
internal_count=180 136 114 79 56 44
is_linear=0
shrinkage=0.01


Tree=27
num_leaves=7
num_cat=0
split_feature=6 0 2 1 6 2
split_gain=10.4249 2.34835 3.05532 4.40144 4.36491 0.94938
threshold=0.86118665461072497 -0.81861333228179445 -0.15094888796107273 -0.36308170262169531 -0.45348059230904841 -0.90723969147289329
decision_type=2 2 2 2 2 2
left_child=1 -1 -3 -4 -5 -2
right_child=5 2 3 4 -6 -7
leaf_value=0.0086638919919730367 -0.011962773843214423 -0.0034849980956283234 0.011036205944739001 -0.0050038818587690844 0.0062299291836604917 -0.0059260529705719468
leaf_weight=5.4641311615705481 4.9237654805183411 8.5565189272165281 5.7445648610591915 6.9051468372344971 6.9299599379301089 5.5323872417211515
leaf_count=22 21 35 23 28 28 23
internal_value=0 0.00266486 0.00149983 0.00367824 0.000623098 -0.00876872
internal_weight=0 33.6003 28.1362 19.5797 13.8351 10.4562
internal_count=180 136 114 79 56 44
is_linear=0
shrinkage=0.01


Tree=28
num_leaves=7
num_cat=0
split_feature=6 6 6 2 2 2
split_gain=10.2337 2.32625 4.27974 2.09596 1.07681 0.937545
threshold=0.86118665461072497 0.3681864370158105 -0.78214740403899186 0.33032707791008592 0.46783449673041688 -0.90723969147289329
decision_type=2 2 2 2 2 2
left_child=1 2 4 -4 -1 -2
right_child=5 -3 3 -5 -6 -7
leaf_value=0.0091414430236746672 -0.011878963269297493 0.0069449549525088033 -0.006362453486826629 0.0013057290148859192 0.0026432310590153913 -0.0058735888051405843
leaf_weight=5.2317424267530424 4.908993661403656 9.133121043443678 7.0913803726434725 7.1669699102640152 4.9749356061220169 5.526017874479292
leaf_count=21 21 37 29 29 20 23
internal_value=0 0.00263837 0.00103066 -0.00250804 0.00597409 -0.00869873
internal_weight=0 33.5981 24.465 14.2584 10.2067 10.435
internal_count=180 136 99 58 41 44
is_linear=0
shrinkage=0.01


Tree=29
num_leaves=6
num_cat=0
split_feature=2 1 1 3 2
split_gain=4.1747 5.64201 4.94354 2.68535 2.42752
threshold=-0.15094888796107273 0.47435334971405851 -0.36308170262169531 0.56190735632644351 -0.70097856324239671
decision_type=2 2 2 2 2
left_child=1 4 -2 -4 -1
right_child=2 -3 3 -5 -6
leaf_value=0.0038592493842093708 0.010357655719029468 -0.011452808671480161 -0.0046990197270780657 0.0036724295871529969 -0.0039195323969129356
leaf_weight=7.9883345365524336 6.4921040087938335 5.9435222148895255 6.8754820227622977 8.6556083112955076 8.0592213422060013
leaf_count=33 26 25 28 35 33
internal_value=0 -0.00312988 0.00302963 -3.35401e-05 -4.73221e-05
internal_weight=0 21.9911 22.0232 15.5311 16.0476
internal_count=180 91 89 63 66
is_linear=0
shrinkage=0.01


Tree=30
num_leaves=6
num_cat=0
split_feature=6 1 2 6 2
split_gain=7.96482 3.11736 3.27388 7.13106 1.87701
threshold=0.86118665461072497 0.86515637413741031 0.67409562496091346 0.20385303115083775 0.055312240269423808
decision_type=2 2 2 2 2
left_child=1 2 3 4 -1
right_child=-2 -3 -4 -5 -6
leaf_value=-0.00086305827411608887 -0.0087504176383320885 -0.0052745770199457108 0.0082319674829768822 0.0077026564607664029 -0.008823935651770495
leaf_weight=7.3981279581785255 9.2340096682310087 5.4349669218063346 8.4390269964933378 8.8778071105480176 4.9389461874961853
leaf_count=30 39 22 34 36 20
internal_value=0 0.0016877 0.00296374 0.000868105 -0.00405007
internal_weight=0 35.0889 29.6539 21.2149 12.3371
internal_count=181 142 120 86 50
is_linear=0
shrinkage=0.01


Tree=31
num_leaves=6
num_cat=0
split_feature=6 1 2 6 6
split_gain=7.82011 3.05564 3.20685 6.98574 1.85339
threshold=0.86118665461072497 0.86515637413741031 0.67409562496091346 0.20385303115083775 -0.78214740403899186
decision_type=2 2 2 2 2
left_child=1 2 3 4 -1
right_child=-2 -3 -4 -5 -6
leaf_value=0.00032283021129164805 -0.0086803003468372449 -0.005224712695228736 0.0081460469762134023 0.0076197406104693702 -0.0074783334959064394
leaf_weight=5.4823553115129462 9.2156061977148038 5.4319846928119651 8.4427382946014387 8.8846342414617521 6.8512987047433915
leaf_count=22 39 22 34 36 28
internal_value=0 0.00167061 0.00293338 0.000859267 -0.00401069
internal_weight=0 35.093 29.661 21.2183 12.3337
internal_count=181 142 120 86 50
is_linear=0
shrinkage=0.01


Tree=32
num_leaves=6
num_cat=0
split_feature=6 1 2 6 2
split_gain=7.67828 2.99538 3.14109 6.8441 1.83987
threshold=0.86118665461072497 0.86515637413741031 0.67409562496091346 0.20385303115083775 0.055312240269423808
decision_type=2 2 2 2 2
left_child=1 2 3 4 -1
right_child=-2 -3 -4 -5 -6
leaf_value=-0.00081696784182286113 -0.008610915149031213 -0.0051753629091538132 0.008061326603248908 0.0075379967157956553 -0.0087023979429775803
leaf_weight=7.3934286385774666 9.1970586925744993 5.4289588630199423 8.4461349546909315 8.8911384344100934 4.9333331435918808
leaf_count=30 39 22 34 36 20
internal_value=0 0.00165388 0.00290373 0.000850666 -0.00397282
internal_weight=0 35.093 29.664 21.2179 12.3268
internal_count=181 142 120 86 50
is_linear=0
shrinkage=0.01


Tree=33
num_leaves=6
num_cat=0
split_feature=6 1 2 6 6
split_gain=7.53908 2.93618 3.07706 6.70502 1.8183
threshold=0.86118665461072497 0.86515637413741031 0.67409562496091346 0.20385303115083775 -0.78214740403899186
decision_type=2 2 2 2 2
left_child=1 2 3 4 -1
right_child=-2 -3 -4 -5 -6
leaf_value=0.000356452287693309 -0.0085422466951920201 -0.0051265204916230468 0.007977779143715372 0.0074573987833741777 -0.0073731267207574717
leaf_weight=5.4825194329023352 9.1783748567104322 5.4258913248777381 8.4492256194353086 8.8973280638456327 6.8406110256910386
leaf_count=22 39 22 34 36 28
internal_value=0 0.0016372 0.00287413 0.000842041 -0.00393426
internal_weight=0 35.0956 29.6697 21.2205 12.3231
internal_count=181 142 120 86 50
is_linear=0
shrinkage=0.01


Tree=34
num_leaves=7
num_cat=0
split_feature=6 1 3 3 6 4
split_gain=7.40263 2.87837 2.83341 3.84007 3.86095 2.96176
threshold=0.86118665461072497 0.86515637413741031 0.47649480730046223 0.18298174142794277 0.3681864370158105 1.0000000180025095e-35
decision_type=2 2 2 2 2 2
left_child=1 2 3 4 5 -1
right_child=-2 -3 -4 -5 -6 -7
leaf_value=-0.0030841652883330274 -0.0084742807065313654 -0.0050781783335648928 0.009171978285792309 -0.0063023700321188985 0.010521467245373518 0.0066704977862820638
leaf_weight=8.3881627023220151 9.1595626175403577 5.4227840453386298 5.7151397466659537 5.1633181869983664 5.4555920511484137 4.9490847140550605
leaf_count=34 39 22 23 21 22 20
internal_value=0 0.00162088 0.00284521 0.00133586 0.00343446 0.000535521
internal_weight=0 35.0941 29.6713 23.9562 18.7928 13.3372
internal_count=181 142 120 97 76 54
is_linear=0
shrinkage=0.01


Tree=35
num_leaves=7
num_cat=0
split_feature=6 2 2 1 4 2
split_gain=7.47532 4.55794 4.31765 4.34295 4.44393 3.2065
threshold=0.86118665461072497 -0.70097856324239671 -0.15094888796107273 -0.36308170262169531 0.78534165361738195 -0.83848598206272784
decision_type=2 2 2 2 2 2
left_child=1 -1 -3 -4 -5 -2
right_child=5 2 3 4 -6 -7
leaf_value=0.010264877386114172 -0.013736770125245837 -0.0062490518817149626 0.0090818746208518354 -0.0059744302398099325 0.004803207757520158 -0.0024588045908267848
leaf_weight=5.2023742347955695 5.0822380930185318 7.8435867428779593 6.734982222318652 7.6078175306320208 7.6958274692296982 5.002319321036337
leaf_count=21 22 32 27 31 31 21
internal_value=0 0.00162651 0.0001226 0.00239028 -0.000554621 -0.00814248
internal_weight=0 35.0846 29.8822 22.0386 15.3036 10.0846
internal_count=185 142 121 89 62 43
is_linear=0
shrinkage=0.01


Tree=36
num_leaves=7
num_cat=0
split_feature=6 2 2 1 4 2
split_gain=7.34116 4.46279 4.23449 4.2578 4.35689 3.16454
threshold=0.86118665461072497 -0.70097856324239671 -0.15094888796107273 -0.36308170262169531 0.78534165361738195 -0.83848598206272784
decision_type=2 2 2 2 2 2
left_child=1 -1 -3 -4 -5 -2
right_child=5 2 3 4 -6 -7
leaf_value=0.010154164113131922 -0.013651548938847289 -0.0061916952550864959 0.0089935692385463249 -0.0059191965286344884 0.0047534349980363159 -0.0024355199470931866
leaf_weight=5.2064849436283103 5.0629218220710754 7.8371157497167578 6.7331092357635525 7.6020492464303988 7.6986318528652191 4.9996561259031278
leaf_count=21 22 32 27 31 31 21
internal_value=0 0.00161056 0.000121408 0.00236689 -0.000549196 -0.00807879
internal_weight=0 35.0774 29.8709 22.0338 15.3007 10.0626
internal_count=185 142 121 89 62 43
is_linear=0
shrinkage=0.01


Tree=37
num_leaves=7
num_cat=0
split_feature=6 2 2 1 3 2
split_gain=7.2096 4.36991 4.153 4.17451 3.74031 3.12349
threshold=0.86118665461072497 -0.70097856324239671 -0.15094888796107273 -0.36308170262169531 0.47649480730046223 -0.83848598206272784
decision_type=2 2 2 2 2 2
left_child=1 -1 -3 -4 -5 -2
right_child=5 2 3 4 -6 -7
leaf_value=0.010045247348475658 -0.013567705810760548 -0.0061349342158602072 0.00890645993103319 -0.0070233793505939078 0.0032296395097199462 -0.0024124501196308213
leaf_weight=5.2102880328893653 5.0433646589517593 7.8305623680353156 6.730982884764674 5.6300285905599621 9.6675007939338666 4.9970052838325483
leaf_count=21 22 32 27 23 39 21
internal_value=0 0.0015948 0.00012023 0.00234378 -0.000543832 -0.00801583
internal_weight=0 35.0694 29.8591 22.0285 15.2975 10.0404
internal_count=185 142 121 89 62 43
is_linear=0
shrinkage=0.01


Tree=38
num_leaves=7
num_cat=0
split_feature=6 2 2 1 4 2
split_gain=7.08058 4.27926 4.0731 4.09303 4.21156 3.08331
threshold=0.86118665461072497 -0.70097856324239671 -0.15094888796107273 -0.36308170262169531 0.78534165361738195 -0.83848598206272784
decision_type=2 2 2 2 2 2
left_child=1 -1 -3 -4 -5 -2
right_child=5 2 3 4 -6 -7
leaf_value=0.0099380772890561454 -0.013485201446402641 -0.0060787588956120117 0.0088205188015143005 -0.0058243642397355477 0.0046708698886300153 -0.0023895938153997176
leaf_weight=5.213791996240615 5.0235777497291565 7.8239303380250922 6.7286111861467388 7.5916434526443499 7.7030999958515167 4.9943670779466611
leaf_count=21 22 32 27 31 31 21
internal_value=0 0.00157921 0.000119064 0.00232088 -0.000538507 -0.00795357
internal_weight=0 35.0611 29.8473 22.0234 15.2947 10.0179
internal_count=185 142 121 89 62 43
is_linear=0
shrinkage=0.01


Tree=39
num_leaves=7
num_cat=0
split_feature=6 2 2 1 4 2
split_gain=6.95407 4.19075 3.99481 4.01329 4.1292 3.04398
threshold=0.86118665461072497 -0.70097856324239671 -0.15094888796107273 -0.36308170262169531 0.78534165361738195 -0.83848598206272784
decision_type=2 2 2 2 2 2
left_child=1 -1 -3 -4 -5 -2
right_child=5 2 3 4 -6 -7
leaf_value=0.0098326058491643737 -0.013403998164855992 -0.0060231606609405077 0.0087357181680477475 -0.0057706738787157309 0.0046226517405590405 -0.0023669482377620256
leaf_weight=5.2170049399137488 5.003571555018425 7.8172233253717414 6.726001828908923 7.585683539509775 7.7056025117635727 4.9917416870594007
leaf_count=21 22 32 27 31 31 21
internal_value=0 0.00156383 0.000117913 0.0022983 -0.000533257 -0.007892
internal_weight=0 35.0515 29.8345 22.0173 15.2913 9.99531
internal_count=185 142 121 89 62 43
is_linear=0
shrinkage=0.01


Tree=40
num_leaves=7
num_cat=0
split_feature=2 1 2 1 3 3
split_gain=9.73761 5.10214 4.92646 2.09217 2.60026 1.8855
threshold=1.2928790096524032 -0.4189107061107456 -0.21970259737123823 0.9209853776264606 0.53870279098412499 0.18298174142794277
decision_type=2 2 2 2 2 2
left_child=1 2 -1 4 5 -3
right_child=-2 3 -4 -5 -6 -7
leaf_value=-0.0024063203022791574 0.012651161233957287 -0.0027262015594358801 0.0087700924222198842 -0.0096410735069471631 0.002803961294590008 -0.010558106425564691
leaf_weight=9.5356457680463809 4.966769039630889 8.5707645565271431 6.7256763577461234 6.9302813112735739 5.1919338256120673 4.7929026484489432
leaf_count=39 20 36 27 29 21 20
internal_value=0 -0.00216034 0.00221624 -0.00495282 -0.00320182 -0.00553513
internal_weight=0 41.7472 16.2613 25.4859 18.5556 13.3637
internal_count=192 172 66 106 77 56
is_linear=0
shrinkage=0.01


Tree=41
num_leaves=7
num_cat=0
split_feature=2 1 2 1 6 6
split_gain=9.54273 5.0058 4.83041 2.05742 2.6044 4.70249
threshold=1.2928790096524032 -0.4189107061107456 -0.21970259737123823 0.9209853776264606 0.86118665461072497 -0.28914718644407661
decision_type=2 2 2 2 2 2
left_child=1 2 -1 4 5 -3
right_child=-2 3 -4 -5 -6 -7
leaf_value=-0.0023828969045063572 0.012520677973137167 -0.007700692119601304 0.008685963922335057 -0.0095626111255658671 -0.0094810375090530006 0.0041335180816093296
leaf_weight=9.5330989509820956 4.9683362990617743 5.8825991153717068 6.7229238152503958 6.9173385798931113 4.8365400731563559 7.8232135474681881
leaf_count=39 20 24 27 29 21 32
internal_value=0 -0.00214037 0.0021948 -0.00490838 -0.0031721 -0.00094578
internal_weight=0 41.7157 16.256 25.4597 18.5424 13.7058
internal_count=192 172 66 106 77 56
is_linear=0
shrinkage=0.01


Tree=42
num_leaves=7
num_cat=0
split_feature=2 1 2 1 6 6
split_gain=9.35241 4.91146 4.73639 2.02327 2.56255 4.61142
threshold=1.2928790096524032 -0.4189107061107456 -0.21970259737123823 0.9209853776264606 0.86118665461072497 -0.28914718644407661
decision_type=2 2 2 2 2 2
left_child=1 2 -1 4 5 -3
right_child=-2 3 -4 -5 -6 -7
leaf_value=-0.0023597018765062865 0.012392544789789102 -0.0076309549907914963 0.0086029343150853324 -0.0094850550815223818 -0.0094111858982351051 0.0040898387310759907
leaf_weight=9.5305514484643954 4.9695032685995093 5.8770229965448406 6.7199458181858054 6.9042262285947791 4.8237775564193717 7.8276746124029186
leaf_count=39 20 24 27 29 21 32
internal_value=0 -0.00212066 0.00217359 -0.00486452 -0.00314278 -0.000936421
internal_weight=0 41.6832 16.2505 25.4327 18.5285 13.7047
internal_count=192 172 66 106 77 56
is_linear=0
shrinkage=0.01


Tree=43
num_leaves=8
num_cat=0
split_feature=6 6 6 1 6 0 1
split_gain=7.12299 2.87834 3.13839 4.23307 3.38343 0.871342 0.79685
threshold=-0.78214740403899186 1.1898534663406684 0.3681864370158105 0.5301823532031088 0.86118665461072497 -0.11796555618338694 -0.64222672006694659
decision_type=2 2 2 2 2 2 2
left_child=6 2 3 5 -4 -2 -1
right_child=1 -3 4 -5 -6 -7 -8
leaf_value=0.0080988661221937461 -0.0056306007079339679 -0.0097731331976528089 0.0061885567924642795 0.0020183139519696037 -0.0043032880454959375 -0.011538233659163158 0.0030588614774445019
leaf_weight=6.9633875489234924 4.8866138756275141 5.2399065643548957 7.6535952836275083 5.9267363846302024 5.1363981664180756 5.1048419624567085 5.7088161110877973
leaf_count=28 20 23 31 24 22 21 23
internal_value=0 -0.00295753 -0.00171352 -0.00467725 0.00197508 -0.00864893 0.00582835
internal_weight=0 33.9481 28.7082 15.9182 12.79 9.99146 12.6722
internal_count=192 141 118 65 53 41 51
is_linear=0
shrinkage=0.01


Tree=44
num_leaves=7
num_cat=0
split_feature=2 1 2 1 3 3
split_gain=9.11807 4.74036 4.61883 1.99813 2.53588 1.84287
threshold=1.2928790096524032 -0.4189107061107456 -0.21970259737123823 0.9209853776264606 0.53870279098412499 0.18298174142794277
decision_type=2 2 2 2 2 2
left_child=1 2 -1 4 5 -3
right_child=-2 3 -4 -5 -6 -7
leaf_value=-0.0023512309633435826 0.012239084555425817 -0.0026122649968999471 0.0084783955880856979 -0.0093911220596663205 0.002848291697631844 -0.010373398421813727
leaf_weight=9.5248940289020556 4.9692109674215308 8.5399092733860069 6.7145315110683432 6.8844857960939398 5.1902928203344336 4.7674084305763236
leaf_count=39 20 36 27 29 21 20
internal_value=0 -0.00209265 0.00212651 -0.00479205 -0.00308036 -0.00539273
internal_weight=0 41.6215 16.2394 25.3821 18.4976 13.3073
internal_count=192 172 66 106 77 56
is_linear=0
shrinkage=0.01


Tree=45
num_leaves=7
num_cat=0
split_feature=6 6 1 1 0 1
split_gain=5.61627 4.74699 3.21283 4.43984 3.08085 1.06341
threshold=0.69685324874575405 0.3681864370158105 -0.083936685176444051 0.5301823532031088 -0.33922274863551566 0.9209853776264606
decision_type=2 2 2 2 2 2
left_child=1 2 4 -4 -1 -2
right_child=5 -3 3 -5 -6 -7
leaf_value=0.00063009430459029503 -0.0071483374063982686 0.010764949374988434 -0.0080238513502764921 0.0033732199296286854 0.01047918186887392 -0.0012777508321804817
leaf_weight=8.9155075252056086 9.041454613208769 5.7000762373208991 7.3007657825946826 6.4271190166473389 4.9334346801042566 4.684140905737876
leaf_count=36 39 23 30 26 20 20
internal_value=0 0.00245747 0.000740324 -0.00268797 0.00413865 -0.00514488
internal_weight=0 33.2769 27.5768 13.7279 13.8489 13.7256
internal_count=194 135 112 56 56 59
is_linear=0
shrinkage=0.01


Tree=46
num_leaves=7
num_cat=0
split_feature=6 6 6 2 3 0
split_gain=5.50936 4.64874 3.18224 2.73622 0.893502 0.844128
threshold=0.69685324874575405 0.3681864370158105 -0.78214740403899186 0.39908078732025137 0.37059312079136986 -0.63423233857168726
decision_type=2 2 2 2 2 2
left_child=1 2 5 -4 -2 -1
right_child=4 -3 3 -5 -6 -7
leaf_value=0.0079139449075444658 -0.0071834164478156949 0.010651252758835114 -0.0059003527135431501 0.0022864961371273475 -0.0019712512129773465 0.0023840026897652233
leaf_weight=4.9800512045621872 8.2288065850734693 5.7032958120107642 8.7285259366035515 7.6695175170898429 5.4787666797637931 6.193130746483801
leaf_count=20 36 23 36 31 23 25
internal_value=0 0.00243305 0.000733055 -0.00207129 -0.00510017 0.00484878
internal_weight=0 33.2745 27.5712 16.398 13.7076 11.1732
internal_count=194 135 112 67 59 45
is_linear=0
shrinkage=0.01


Tree=47
num_leaves=7
num_cat=0
split_feature=6 6 1 1 0 1
split_gain=5.40483 4.55282 3.12048 4.3441 3.03055 1.03696
threshold=0.69685324874575405 0.3681864370158105 -0.083936685176444051 0.5301823532031088 -0.33922274863551566 0.9209853776264606
decision_type=2 2 2 2 2 2
left_child=1 2 4 -4 -1 -2
right_child=5 -3 3 -5 -6 -7
leaf_value=0.0005942790843642251 -0.0070396027404805188 0.010539412746708452 -0.0079396336926829802 0.0033377492833379704 0.010362933980381937 -0.001236886397429468
leaf_weight=8.9137034118175471 9.0097677409648878 5.7061640024185172 7.2887116372585314 6.4281894117593765 4.9335120767354974 4.6789192110300055
leaf_count=36 39 23 30 26 20 20
internal_value=0 0.00240901 0.000725903 -0.00265468 0.00407467 -0.00505618
internal_weight=0 33.2703 27.5641 13.7169 13.8472 13.6887
internal_count=194 135 112 56 56 59
is_linear=0
shrinkage=0.01


Tree=48
num_leaves=7
num_cat=0
split_feature=6 6 6 2 3 0
split_gain=5.30203 4.45929 3.10396 2.66328 0.870811 0.833479
threshold=0.69685324874575405 0.3681864370158105 -0.78214740403899186 0.39908078732025137 0.37059312079136986 -0.63423233857168726
decision_type=2 2 2 2 2 2
left_child=1 2 5 -4 -2 -1
right_child=4 -3 3 -5 -6 -7
leaf_value=0.0078293992389793839 -0.0070745316588055017 0.010429376369779053 -0.0058340180231846719 0.0022451501756719588 -0.0019234527474009655 0.0023338738495440425
leaf_weight=4.9797117710113525 8.1975331306457502 5.7086908221244803 8.7163219004869514 7.6712005436420432 5.4730941355228415 6.1907482594251615
leaf_count=20 36 23 36 31 23 25
internal_value=0 0.00238516 0.00071879 -0.00205206 -0.00501228 0.00478374
internal_weight=0 33.2667 27.558 16.3875 13.6706 11.1705
internal_count=194 135 112 67 59 45
is_linear=0
shrinkage=0.01


Tree=49
num_leaves=8
num_cat=0
split_feature=6 6 6 1 1 1 1
split_gain=5.20151 4.36794 3.04257 2.93711 4.83192 1.01121 0.688455
threshold=0.69685324874575405 0.3681864370158105 -0.78214740403899186 0.5301823532031088 -0.083936685176444051 0.9209853776264606 -0.69805572355599688
decision_type=2 2 2 2 2 2 2
left_child=1 2 6 4 -4 -2 -1
right_child=5 -3 3 -5 -6 -7 -8
leaf_value=0.0071597114323043547 -0.0069327546965446563 0.010321093749877693 0.002001645338647278 0.0035894232827799462 -0.011622170192940076 -0.0011969758257456466 0.0021930026087994977
leaf_weight=5.7193960696458817 8.9779530912637693 5.7108858227729788 4.909922793507576 5.9293205589056006 5.541385114192968 4.6737794876098624 5.4505200088024122
leaf_count=23 39 23 20 24 23 20 22
internal_value=0 0.00236167 0.000711785 -0.00203241 -0.00522183 -0.00496907 0.00473613
internal_weight=0 33.2614 27.5505 16.3806 10.4513 13.6517 11.1699
internal_count=194 135 112 67 43 59 45
is_linear=0
shrinkage=0.01


Tree=50
num_leaves=8
num_cat=0
split_feature=2 6 6 4 3 1 3
split_gain=7.95084 3.32386 8.13141 2.34054 1.95691 0.410252 0.360481
threshold=0.6053419155507479 0.69685324874575405 0.3681864370158105 0.88299603864133835 -0.67163746298808935 0.5301823532031088 0.085226338496472875
decision_type=2 2 2 2 2 2 2
left_child=1 2 4 -2 -1 -3 -6
right_child=3 5 -4 -5 6 -7 -8
leaf_value=0.00035652959773621303 0.011450632231415203 -0.0050271920293591408 0.010793995901013645 0.0027968983510314339 -0.0085927537075355283 -0.0090014674526167054 -0.0047398684761574489
leaf_weight=6.677676230669026 5.6813275068998319 4.600139454007147 4.9675234705209723 6.9472598135471344 4.8802985399961507 5.9659067839384079 4.8333096504211426
leaf_count=27 23 20 20 28 20 26 20
internal_value=0 -0.00268355 -0.000414079 0.00669003 -0.00381079 -0.00727119 -0.00667563
internal_weight=0 31.9249 21.3588 12.6286 16.3913 10.566 9.71361
internal_count=184 133 87 51 67 46 40
is_linear=0
shrinkage=0.01


Tree=51
num_leaves=8
num_cat=0
split_feature=2 6 6 5 3 3 3
split_gain=7.79404 3.26687 7.96855 2.85543 1.92014 0.353425 0.313704
threshold=0.6053419155507479 0.69685324874575405 0.3681864370158105 0.86153063886251802 -0.67163746298808935 0.085226338496472875 -0.037708486402193812
decision_type=2 2 2 2 2 2 2
left_child=1 2 4 -2 -1 -6 -3
right_child=3 6 -4 -5 5 -7 -8
leaf_value=0.00035295749280554923 0.011673908776772221 -0.0091882789997213537 0.010682169068657477 0.0021467567622717666 -0.0085127168690646432 -0.0046962955923417508 -0.0057069138762950713
leaf_weight=6.6778042316436812 5.9333305060863477 4.5617618709802628 4.9693215638399115 6.6964001953601837 4.8769382685422933 4.8293918371200562 5.9831827580928785
leaf_count=27 24 20 20 27 20 20 26
internal_value=0 -0.00265895 -0.000410057 0.00662252 -0.00377434 -0.00661385 -0.00721296
internal_weight=0 31.8984 21.3535 12.6297 16.3841 9.70633 10.5449
internal_count=184 133 87 51 67 40 46
is_linear=0
shrinkage=0.01


Tree=52
num_leaves=8
num_cat=0
split_feature=2 6 6 5 3 3 3
split_gain=7.6407 3.21082 7.80931 2.79954 1.88411 0.346542 0.309396
threshold=0.6053419155507479 0.69685324874575405 0.3681864370158105 0.86153063886251802 -0.67163746298808935 0.085226338496472875 -0.037708486402193812
decision_type=2 2 2 2 2 2 2
left_child=1 2 4 -2 -1 -6 -3
right_child=3 6 -4 -5 5 -7 -8
leaf_value=0.00034942140619062106 0.011558348384936402 -0.0091198303051920598 0.010572140547688125 0.0021249753815100838 -0.0084336617645533532 -0.004653138384603712 -0.0056587636753513207
leaf_weight=6.6779305189847991 5.9327282756566984 4.5500985831022263 4.970821186900138 6.6973842233419418 4.873444557189945 4.8254618495702744 5.9737996906042081
leaf_count=27 24 20 20 27 20 20 26
internal_value=0 -0.00263462 -0.000406082 0.0065561 -0.00373827 -0.00655275 -0.00715519
internal_weight=0 31.8716 21.3477 12.6301 16.3768 9.69891 10.5239
internal_count=184 133 87 51 67 40 46
is_linear=0
shrinkage=0.01


Tree=53
num_leaves=8
num_cat=0
split_feature=2 6 6 5 3 3 3
split_gain=7.49058 3.15574 7.65359 2.74507 1.8488 0.339827 0.305169
threshold=0.6053419155507479 0.69685324874575405 0.3681864370158105 0.86153063886251802 -0.67163746298808935 0.085226338496472875 -0.037708486402193812
decision_type=2 2 2 2 2 2 2
left_child=1 2 4 -2 -1 -6 -3
right_child=3 6 -4 -5 5 -7 -8
leaf_value=0.00034592052751977834 0.011444666624905465 -0.0090520577444026147 0.010463859224297982 0.002103422806295047 -0.0083555666269481566 -0.0046103912867130016 -0.0056110280504371272
leaf_weight=6.6780551373958632 5.9317470788955671 4.5383824855089188 4.9720310270786277 6.6983434855937958 4.869822114706043 4.821521058678627 5.9644227325916273
leaf_count=27 24 20 20 27 20 20 26
internal_value=0 -0.00261054 -0.000402153 0.00649056 -0.00370259 -0.00649231 -0.00709794
internal_weight=0 31.8442 21.3414 12.6301 16.3694 9.69134 10.5028
internal_count=184 133 87 51 67 40 46
is_linear=0
shrinkage=0.01


Tree=54
num_leaves=8
num_cat=0
split_feature=2 5 3 2 4 0 3
split_gain=7.34361 2.69197 2.12166 2.49704 2.08809 0.646453 0.453261
threshold=0.6053419155507479 0.86153063886251802 -0.64053347114625792 -0.63222485383223126 0.06190202578684733 0.36142502746289201 -1.0145219444825631
decision_type=2 2 2 2 2 2 2
left_child=2 -2 6 -4 -5 -6 -1
right_child=1 -3 3 4 5 -7 -8
leaf_value=-0.00086440728364512234 0.011332809243016224 0.0020820964695424768 -0.010836552649490154 0.0019932369139660099 -0.0078479622701836706 -0.0029483679412327206 0.0033874212327668612
leaf_weight=5.1185519397258759 5.9303983151912671 6.6992784291505814 4.6519126147031811 6.316584229469302 5.0651967227458936 5.7496347278356552 4.9145739823579806
leaf_count=21 24 27 21 26 21 24 20
internal_value=0 0.00642587 -0.00258673 -0.00433927 -0.00257498 -0.00524312 0.00121829
internal_weight=0 12.6297 31.8165 21.7833 17.1314 10.8148 10.0331
internal_count=184 51 133 92 71 45 41
is_linear=0
shrinkage=0.01


Tree=55
num_leaves=7
num_cat=0
split_feature=6 6 6 1 4 6
split_gain=4.17315 2.83591 5.08992 1.47322 1.12362 1.07811
threshold=0.86118665461072497 0.20385303115083775 -0.78214740403899186 -0.64222672006694659 -0.031517347641682424 0.53251984288078236
decision_type=2 2 2 2 2 2
left_child=1 2 3 -1 -4 -3
right_child=-2 5 4 -5 -6 -7
leaf_value=0.0077609068646548032 -0.0071444152006458293 0.0082996334887337642 -0.0092147903434649844 0.00014400053006123373 -0.0031245693679133654 0.0017668826728235874
leaf_weight=5.2105086892843246 8.5541461408138257 5.1665718257427198 4.8489734977483705 4.9531360268592817 8.0729659199714714 4.9432250410318375
leaf_count=21 38 21 20 20 33 20
internal_value=0 0.000688634 -0.0012456 0.00404889 -0.00540993 0.00510542
internal_weight=0 33.1954 23.0856 10.1636 12.9219 10.1098
internal_count=173 135 94 41 53 41
is_linear=0
shrinkage=0.01


Tree=56
num_leaves=7
num_cat=0
split_feature=6 6 6 2 1 6
split_gain=4.09946 2.77863 4.99161 1.48906 1.44469 1.05551
threshold=0.86118665461072497 0.20385303115083775 -0.78214740403899186 0.39908078732025137 -0.64222672006694659 0.53251984288078236
decision_type=2 2 2 2 2 2
left_child=1 2 4 -4 -1 -3
right_child=-2 5 3 -5 -6 -7
leaf_value=0.0076859835346984231 -0.0070886959120633917 0.0082116765922479063 -0.0084914185627845817 -0.0016772427014335772 0.00014256019095229723 0.0017489462905012237
leaf_weight=5.2086971253156662 8.5352656096219999 5.1696770191192609 6.9783039987087268 5.9337921440601349 4.9531410187482816 4.9439781457185745
leaf_count=21 38 21 29 24 20 20
internal_value=0 0.000681895 -0.00123377 -0.00535994 0.00400913 0.00505242
internal_weight=0 33.1876 23.0739 12.9121 10.1618 10.1137
internal_count=173 135 94 53 41 41
is_linear=0
shrinkage=0.01


Tree=57
num_leaves=7
num_cat=0
split_feature=6 6 6 1 4 6
split_gain=4.02708 2.72258 4.89562 1.41677 1.08879 1.03347
threshold=0.86118665461072497 0.20385303115083775 -0.78214740403899186 -0.64222672006694659 -0.031517347641682424 0.53251984288078236
decision_type=2 2 2 2 2 2
left_child=1 2 3 -1 -4 -3
right_child=-2 5 4 -5 -6 -7
leaf_value=0.0076119802834081702 -0.0070334483058502144 0.0081249707581049942 -0.0090628649260713467 0.00014113429772724789 -0.0030615395991839245 0.001731196846888868
leaf_weight=5.2067520171403885 8.516381695866583 5.1725819855928403 4.8356535285711244 4.9531459212303144 8.0650943964719826 4.9447162747383118
leaf_count=21 38 21 20 20 33 20
internal_value=0 0.000675257 -0.00122216 0.0039698 -0.00531105 0.00500009
internal_weight=0 33.1779 23.0606 10.1599 12.9007 10.1173
internal_count=173 135 94 41 53 41
is_linear=0
shrinkage=0.01


Tree=58
num_leaves=7
num_cat=0
split_feature=6 6 6 2 1 6
split_gain=3.95601 2.6677 4.80117 1.44898 1.38944 1.01197
threshold=0.86118665461072497 0.20385303115083775 -0.78214740403899186 0.39908078732025137 -0.64222672006694659 0.53251984288078236
decision_type=2 2 2 2 2 2
left_child=1 2 4 -4 -1 -3
right_child=-2 5 3 -5 -6 -7
leaf_value=0.007538878656299629 -0.0069786656559465976 0.0080394874092883997 -0.0083573059340393968 -0.001630514637696289 0.00013972309051928715 0.0017136328642771432
leaf_weight=5.2046777456998825 8.4974984377622587 5.1752920597791654 6.95922899246216 5.9314250200986862 4.9531507492065412 4.9454396814107895
leaf_count=21 38 21 29 24 20 20
internal_value=0 0.000668668 -0.00121059 -0.00526208 0.00393091 0.00494839
internal_weight=0 33.1692 23.0485 12.8907 10.1578 10.1207
internal_count=173 135 94 53 41 41
is_linear=0
shrinkage=0.01


Tree=59
num_leaves=7
num_cat=0
split_feature=6 6 6 2 1 6
split_gain=3.8862 2.61399 4.70895 1.42442 1.36269 0.990981
threshold=0.86118665461072497 0.20385303115083775 -0.78214740403899186 0.39908078732025137 -0.64222672006694659 0.53251984288078236
decision_type=2 2 2 2 2 2
left_child=1 2 4 -4 -1 -3
right_child=-2 5 3 -5 -6 -7
leaf_value=0.0074666607090418469 -0.0069243402900966838 0.0079551981332135341 -0.0082866048479971026 -0.0016144362864328485 0.00013832572894551101 0.0016962520536909387
leaf_weight=5.2024785429239273 8.4786193221807462 5.1778126955032331 6.9484727829694766 5.9305956810712814 4.9531554281711561 4.9461487233638763
leaf_count=21 38 21 29 24 20 20
internal_value=0 0.000662177 -0.00119921 -0.00521418 0.00389245 0.00489734
internal_weight=0 33.1587 23.0347 12.8791 10.1556 10.124
internal_count=173 135 94 53 41 41
is_linear=0
shrinkage=0.01


Tree=60
num_leaves=7
num_cat=0
split_feature=2 4 2 0 0 1
split_gain=3.38468 3.72211 3.3466 2.67274 2.23245 0.725288
threshold=1.1553715908320721 0.18322265207936467 -0.082195178550907216 0.47205362368895637 -0.81861333228179445 0.13937932877975698
decision_type=2 2 2 2 2 2
left_child=1 2 4 -3 -1 -6
right_child=-2 3 -4 -5 5 -7
leaf_value=0.003652280931495925 0.0079245837847772716 -0.01082167639676559 0.0078981591444544745 -0.0016534733057959365 -0.0066024408160183018 -0.0011234689243792644
leaf_weight=6.792765066027644 4.9604776054620734 4.9951130002737036 6.1629344671964672 8.7490998953580839 4.7720716595649701 4.8937981873750687
leaf_count=28 20 21 25 36 20 22
internal_value=0 -0.000881112 0.0016126 -0.00498551 -0.000741025 -0.00382846
internal_weight=0 36.3658 22.6216 13.7442 16.4586 9.66587
internal_count=172 152 95 57 70 42
is_linear=0
shrinkage=0.01


Tree=61
num_leaves=7
num_cat=0
split_feature=6 6 2 3 5 5
split_gain=3.46536 4.11017 4.14935 7.36104 3.0235 0.78446
threshold=0.86118665461072497 0.3681864370158105 1.0866178814219067 -0.051532482776341065 -0.70070186696974412 -0.026570864981840529
decision_type=2 2 2 2 2 2
left_child=1 2 3 4 -1 -2
right_child=5 -3 -4 -5 -6 -7
leaf_value=-0.0023593059606306249 -0.008190834509199026 0.0076193234515084208 0.0076706400935506814 -0.009864936357357787 0.008329748707643015 -0.0023265596104198
leaf_weight=5.4313403517007828 4.5727141946554184 8.6319735050201398 4.9681176841258994 7.9891679883003279 5.1606010347604752 4.5516946166753751
leaf_count=22 21 35 20 33 21 20
internal_value=0 0.00171647 -0.00044722 -0.00261773 0.00284861 -0.00526545
internal_weight=0 32.1812 23.5492 18.5811 10.5919 9.12441
internal_count=172 131 96 76 43 41
is_linear=0
shrinkage=0.01


Tree=62
num_leaves=7
num_cat=0
split_feature=6 6 2 3 2 0
split_gain=3.40125 4.02588 4.06818 7.22579 1.4778 0.773392
threshold=0.86118665461072497 0.3681864370158105 1.0866178814219067 -0.051532482776341065 -0.21970259737123823 -0.044213158699344043
decision_type=2 2 2 2 2 2
left_child=1 2 3 4 -1 -2
right_child=5 -3 -4 -5 -6 -7
leaf_value=-0.00066837078936775849 -0.0081328879960767646 0.0075397286946336066 0.0075950983677689887 -0.0097817064939880009 0.0068202034625464035 -0.0023048705082097877
leaf_weight=5.6561224758625031 4.5593091696500778 8.6358479559421522 4.9673595279455176 7.9766370654106185 4.9340184181928635 4.5485974103212339
leaf_count=23 21 35 20 33 20 20
internal_value=0 0.00169988 -0.000443055 -0.00259358 0.00282061 -0.00522231
internal_weight=0 32.17 23.5341 18.5668 10.5901 9.10791
internal_count=172 131 96 76 43 41
is_linear=0
shrinkage=0.01


Tree=63
num_leaves=7
num_cat=0
split_feature=6 6 2 3 5 0
split_gain=3.33837 3.94344 3.98873 7.09328 2.93289 0.762492
threshold=0.86118665461072497 0.3681864370158105 1.0866178814219067 -0.051532482776341065 -0.70070186696974412 -0.044213158699344043
decision_type=2 2 2 2 2 2
left_child=1 2 3 4 -1 -2
right_child=5 -3 -4 -5 -6 -7
leaf_value=-0.002336476149386005 -0.0080754162204612918 0.0074612080333170822 0.0075205042471857067 -0.009699496896219597 0.0081934033190771832 -0.0022833741209083288
leaf_weight=5.429904893040657 4.54590705037117 8.6394446194171888 4.9664675742387763 7.9638659060001418 5.1576653569936752 4.5455201566219312
leaf_count=22 21 35 20 33 21 20
internal_value=0 0.00168352 -0.000438949 -0.0025698 0.00279309 -0.00517952
internal_weight=0 32.1573 23.5179 18.5514 10.5876 9.09143
internal_count=172 131 96 76 43 41
is_linear=0
shrinkage=0.01


Tree=64
num_leaves=7
num_cat=0
split_feature=6 6 2 3 5 0
split_gain=3.27665 3.86284 3.9109 6.96341 2.87523 0.751758
threshold=0.86118665461072497 0.3681864370158105 1.0866178814219067 -0.051532482776341065 -0.70070186696974412 -0.044213158699344043
decision_type=2 2 2 2 2 2
left_child=1 2 3 4 -1 -2
right_child=5 -3 -4 -5 -6 -7
leaf_value=-0.0023134702675963086 -0.0080184108036219087 0.0073837386146759897 0.007446838528013716 -0.0096182834188449501 0.0081134216501948589 -0.0022620693731030847
leaf_weight=5.4290662854909897 4.532510370016098 8.6427710950374586 4.965446025133132 7.9508642554283186 5.1564304232597351 4.5424629449844343
leaf_count=22 21 35 20 33 21 20
internal_value=0 0.00166733 -0.000434881 -0.0025462 0.0027657 -0.00513708
internal_weight=0 32.1446 23.5018 18.5364 10.5855 9.07497
internal_count=172 131 96 76 43 41
is_linear=0
shrinkage=0.01


Tree=65
num_leaves=8
num_cat=0
split_feature=6 1 6 2 1 6 3
split_gain=5.9019 2.42723 3.20529 2.12188 1.54156 0.875879 0.674956
threshold=0.86118665461072497 0.9209853776264606 0.3681864370158105 0.39908078732025137 -0.64222672006694659 1.1898534663406684 0.21482630450410342
decision_type=2 2 2 2 2 2 2
left_child=1 2 3 4 -1 -2 -5
right_child=5 -3 -4 6 -6 -7 -8
leaf_value=0.0013188242452577307 -0.0041561641264976218 -0.0045969068374985328 0.0085379723757559017 0.0062955603777439606 -0.0063941936744648618 -0.010377650522224167 0.0016756949436030979
leaf_weight=5.4146739691495895 4.4931363463401777 5.1593386232852927 7.4214312136173239 5.6451968699693662 4.96947985887528 4.5587353557348251 7.1904232352972031
leaf_count=22 20 21 30 23 21 21 29
internal_value=0 0.0017486 0.00281705 0.000988546 -0.00237235 -0.00728945 0.00370754
internal_weight=0 35.8005 30.6412 23.2198 10.3842 9.05187 12.8356
internal_count=187 146 125 95 43 41 52
is_linear=0
shrinkage=0.01


Tree=66
num_leaves=7
num_cat=0
split_feature=6 1 6 4 1 6
split_gain=5.79678 2.37975 3.14007 1.00631 2.27951 0.86555
threshold=0.86118665461072497 0.9209853776264606 0.3681864370158105 -0.031517347641682424 -0.083936685176444051 1.1898534663406684
decision_type=2 2 2 2 2 2
left_child=1 2 3 -1 -5 -2
right_child=5 -3 -4 4 -6 -7
leaf_value=-0.0015151812835803328 -0.0041199712828322377 -0.0045531984529762247 0.0084511073582776517 0.0079627049806367447 -0.00045981113666971902 -0.010312412139423407
leaf_weight=9.5325077921152133 4.4873108267784101 5.156789779663085 7.4227284938096991 5.1596291661262503 8.5186825245618838 4.541784256696701
leaf_count=39 20 21 30 21 35 21
internal_value=0 0.0017316 0.00278957 0.000979032 0.00271727 -0.00723487
internal_weight=0 35.7903 30.6335 23.2108 13.6783 9.0291
internal_count=187 146 125 95 56 41
is_linear=0
shrinkage=0.01


Tree=67
num_leaves=6
num_cat=0
split_feature=2 1 0 4 1
split_gain=5.15424 3.69841 3.76607 1.93897 2.05227
threshold=1.2928790096524032 0.30686633924690782 0.47205362368895637 -0.58879504993400522 -0.36308170262169531
decision_type=2 2 2 2 2
left_child=1 3 -3 -1 -5
right_child=-2 2 -4 4 -6
leaf_value=-0.00222909748878282 0.0095527472147567839 -0.0096994315997362707 -0.00036840380374385901 0.0074711730288013747 -0.00030685776672665293
leaf_weight=8.8667995929718018 4.9473232924938193 8.1288470625877398 9.2445445060729963 7.1499747633934012 6.4547807276248941
leaf_count=37 20 36 38 29 27
internal_value=0 -0.00126937 -0.0047343 0.00140947 0.00378088
internal_weight=0 39.8449 17.3734 22.4716 13.6048
internal_count=187 167 74 93 56
is_linear=0
shrinkage=0.01


Tree=68
num_leaves=8
num_cat=0
split_feature=6 1 6 2 1 6 3
split_gain=5.6226 2.33359 3.12161 2.02282 1.50538 0.852084 0.642497
threshold=0.86118665461072497 0.9209853776264606 0.3681864370158105 0.39908078732025137 -0.64222672006694659 1.1898534663406684 0.21482630450410342
decision_type=2 2 2 2 2 2 2
left_child=1 2 3 4 -1 -2 -5
right_child=5 -3 -4 6 -6 -7 -8
leaf_value=0.0013076612431772966 -0.0040517542261402405 -0.0045227387510359176 0.0083963649332566056 0.0061285295095285033 -0.0063187391383618154 -0.01020960057210721 0.0016189931403351797
leaf_weight=5.4138280898332596 4.4750887453556043 5.1530351042747489 7.4208830595016471 5.6361790746450406 4.9591277986764961 4.5135181248188019 7.1896597892045975
leaf_count=22 20 21 30 23 21 21 29
internal_value=0 0.0017032 0.00275097 0.000945115 -0.00233839 -0.00714384 0.00360066
internal_weight=0 35.7727 30.6197 23.1988 10.373 8.98861 12.8258
internal_count=187 146 125 95 43 41 52
is_linear=0
shrinkage=0.01


Tree=69
num_leaves=8
num_cat=0
split_feature=6 1 6 2 1 6 3
split_gain=5.52258 2.28798 3.05836 1.98319 1.47784 0.842144 0.630536
threshold=0.86118665461072497 0.9209853776264606 0.3681864370158105 0.39908078732025137 -0.64222672006694659 1.1898534663406684 0.21482630450410342
decision_type=2 2 2 2 2 2 2
left_child=1 2 3 4 -1 -2 -5
right_child=5 -3 -4 6 -6 -7 -8
leaf_value=0.0012944781228312744 -0.0040164248357906019 -0.0044797766510638387 0.0083114440756637074 0.0060706827947643698 -0.0062644941039317874 -0.010145997772938243 0.0016026862046569104
leaf_weight=5.4142716974020004 4.4693370312452299 5.150442272424697 7.4217333793640128 5.6330027133226377 4.9520843327045494 4.4964796900749207 7.190182238817215
leaf_count=22 20 21 30 23 21 21 29
internal_value=0 0.00168668 0.00272421 0.000936031 -0.0023165 -0.00709049 0.0035654
internal_weight=0 35.7617 30.6113 23.1895 10.3664 8.96582 12.8232
internal_count=187 146 125 95 43 41 52
is_linear=0
shrinkage=0.01


Tree=70
num_leaves=7
num_cat=0
split_feature=2 1 6 0 3 3
split_gain=3.90925 4.51796 3.39599 3.38707 2.83698 1.45631
threshold=-0.21970259737123823 -0.36308170262169531 0.20385303115083775 -0.81861333228179445 0.50488337128308614 -0.27222271060647757
decision_type=2 2 2 2 2 2
left_child=3 -2 4 -1 -3 -5
right_child=1 2 -4 5 -6 -7
leaf_value=0.0026331963610510324 0.010115447281010657 -0.0086371840352819657 0.006455017055669132 -0.010771415245601372 0.0012553529800108779 -0.0037058346478887178
leaf_weight=6.2225517481565502 6.157568126916888 4.9828320890665072 5.7879107743501654 4.7321648597717294 6.9317938685417175 7.6057143807411167
leaf_count=26 25 21 24 20 28 34
internal_value=0 0.00273728 0.000170895 -0.00338206 -0.00288182 -0.00641582
internal_weight=0 23.8601 17.7025 18.5604 11.9146 12.3379
internal_count=178 98 73 80 49 54
is_linear=0
shrinkage=0.01


Tree=71
num_leaves=7
num_cat=0
split_feature=2 1 6 0 5 4
split_gain=3.83398 4.43388 3.32697 3.32499 2.78644 1.43201
threshold=-0.21970259737123823 -0.36308170262169531 0.20385303115083775 -0.81861333228179445 0.58394728510279303 -0.41640516616722506
decision_type=2 2 2 2 2 2
left_child=3 -2 4 -1 -3 -5
right_child=1 2 -4 5 -6 -7
leaf_value=0.0026060645442163403 0.010024811312658748 -0.0085663020891590877 0.0063846942856255516 -0.010685035639838037 0.0012427037074177528 -0.0036728671353519139
leaf_weight=6.2244520932436016 6.1511393636465099 4.9738670587539691 5.793117254972457 4.7227634638547906 6.9323258996009827 7.5972858369350407
leaf_count=26 25 21 24 20 28 34
internal_value=0 0.002711 0.000169185 -0.00335115 -0.00285505 -0.00636091
internal_weight=0 23.8504 17.6993 18.5445 11.9062 12.32
internal_count=178 98 73 80 49 54
is_linear=0
shrinkage=0.01


Tree=72
num_leaves=7
num_cat=0
split_feature=2 1 0 6 3 3
split_gain=3.76022 4.35156 3.26409 3.25944 2.73687 1.40825
threshold=-0.21970259737123823 -0.36308170262169531 -0.81861333228179445 0.20385303115083775 0.50488337128308614 -0.27222271060647757
decision_type=2 2 2 2 2 2
left_child=2 -2 -1 4 -3 -4
right_child=1 3 5 -5 -6 -7
leaf_value=0.0025792283153465915 0.009935385854299119 -0.0084961693088514995 -0.010599737887751169 0.00631532218079964 0.0012301836197084516 -0.0036401783491216556
leaf_weight=6.2263140231370953 6.1444723755121258 4.9648207128047961 4.7132086157798776 5.798160031437873 6.932847261428833 7.5888967365026447
leaf_count=26 25 21 20 24 28 34
internal_value=0 0.00268502 -0.00332055 0.000167495 -0.00282856 -0.00630654
internal_weight=0 23.8403 18.5284 17.6958 11.8977 12.3021
internal_count=178 98 80 73 49 54
is_linear=0
shrinkage=0.01


Tree=73
num_leaves=6
num_cat=0
split_feature=6 1 1 4 4
split_gain=2.8967 1.7689 2.18492 2.17194 0.756454
threshold=0.86118665461072497 -0.083936685176444051 0.5301823532031088 -0.3982195281398046 -0.11696493453764431
decision_type=2 2 2 2 2
left_child=1 3 -3 -1 -2
right_child=4 2 -4 -5 -6
leaf_value=0.00071050173130054279 -0.0077391715889812375 -0.0049567273682152467 0.0024208517000515514 0.0081194987085881458 -0.0021677617879699907
leaf_weight=9.3881675601005572 4.4653426557779312 7.1801856011152294 9.1043202579021436 6.838951736688613 5.3648987710475904
leaf_count=38 21 30 37 28 24
internal_value=0 0.00149636 -0.00083208 0.00383304 -0.00469855
internal_weight=0 32.5116 16.2845 16.2271 9.83024
internal_count=178 133 67 66 45
is_linear=0
shrinkage=0.01


Tree=74
num_leaves=7
num_cat=0
split_feature=2 1 0 6 3 3
split_gain=3.63853 4.22581 3.19729 3.19486 2.68547 1.38959
threshold=-0.21970259737123823 -0.36308170262169531 -0.81861333228179445 0.20385303115083775 0.50488337128308614 -0.27222271060647757
decision_type=2 2 2 2 2 2
left_child=2 -2 -1 4 -3 -4
right_child=1 3 5 -5 -6 -7
leaf_value=0.0025678082093390053 0.0097940611044350333 -0.0084301990550896058 -0.010502795012562951 0.0062439691082736316 0.0012099590530350952 -0.0035803132418191041
leaf_weight=6.2239229679107693 6.1330459266901043 4.9545082896947878 4.6995225548744211 5.8027889281511298 6.933836817741394 7.5718856602907154
leaf_count=26 25 21 20 24 28 34
internal_value=0 0.0026411 -0.00327034 0.000161358 -0.00280761 -0.00623138
internal_weight=0 23.8242 18.4953 17.6911 11.8883 12.2714
internal_count=178 98 80 73 49 54
is_linear=0
shrinkage=0.01


Tree=75
num_leaves=8
num_cat=0
split_feature=6 1 6 6 5 6 3
split_gain=4.10718 2.82328 1.82811 2.56896 1.47542 0.811021 0.693724
threshold=0.86118665461072497 0.86515637413741031 0.20385303115083775 -0.78214740403899186 0.015562322642403448 -1.2751476216339064 0.18298174142794277
decision_type=2 2 2 2 2 2 2
left_child=1 2 3 5 -2 -1 -5
right_child=4 -3 -4 6 -6 -7 -8
leaf_value=0.0010893891250344616 -0.010069848484271107 -0.0052873343333835875 0.0065300096901496699 -0.00018324142853527536 -0.0020335293046777102 0.0063666669001214097 -0.0053233269710678032
leaf_weight=4.9088129401206961 4.6415681689977628 5.4054027348756781 8.3937759548425657 5.7515155076980626 4.4988849610090256 7.1594757586717614 4.8313238173723221
leaf_count=20 22 22 34 24 20 29 20
internal_value=0 0.00138238 0.00254368 0.00106648 -0.00611441 0.00422012 -0.00252982
internal_weight=0 36.4503 31.0449 22.6511 9.14045 12.0683 10.5828
internal_count=191 149 127 93 42 49 44
is_linear=0
shrinkage=0.01


Tree=76
num_leaves=8
num_cat=0
split_feature=6 1 6 6 5 6 3
split_gain=4.03349 2.76811 1.79085 2.51857 1.45681 0.795515 0.680687
threshold=0.86118665461072497 0.86515637413741031 0.20385303115083775 -0.78214740403899186 0.015562322642403448 -1.2751476216339064 0.18298174142794277
decision_type=2 2 2 2 2 2 2
left_child=1 2 3 5 -2 -1 -5
right_child=4 -3 -4 6 -6 -7 -8
leaf_value=0.0010785490588237044 -0.010008988071309568 -0.0052373513813133423 0.0064635816963769166 -0.00018141398692553926 -0.0020144518953217126 0.0063056598540992071 -0.0052740307827514807
leaf_weight=4.9085696041584006 4.6231861859559995 5.4024343043565741 8.3952330946922284 5.7513538300991094 4.4960898607969284 7.156471088528634 4.8277354091405869
leaf_count=20 22 22 34 24 20 29 20
internal_value=0 0.00136887 0.00251869 0.00105614 -0.00606743 0.00417905 -0.00250541
internal_weight=0 36.4418 31.0394 22.6441 9.11928 12.065 10.5791
internal_count=191 149 127 93 42 49 44
is_linear=0
shrinkage=0.01


Tree=77
num_leaves=8
num_cat=0
split_feature=6 2 2 2 2 2 1
split_gain=3.96114 3.64147 3.42614 4.7843 4.31596 2.46814 1.99325
threshold=0.86118665461072497 -0.70097856324239671 -0.15094888796107273 0.26157336849992036 0.6053419155507479 -0.90723969147289329 0.25103733575785753
decision_type=2 2 2 2 2 2 2
left_child=1 -1 -3 -4 -5 -2 -6
right_child=5 2 3 4 6 -7 -8
leaf_value=0.0087048074441645872 -0.011729398351274095 -0.0058734014411548829 0.010407772802064908 -0.0081422945321250866 0.007425371962847419 -0.001268668262326909 -0.0006203325449593974
leaf_weight=5.6891663819551459 4.1331467926502228 7.5153875648975363 5.1402689069509568 5.2707945555448559 5.1420811116695386 4.9649611413478834 7.675227478146553
leaf_count=23 20 31 21 22 21 22 31
internal_value=0 0.00135551 -4.4831e-06 0.00189437 -0.000524969 -0.00602084 0.00260746
internal_weight=0 36.4329 30.7438 23.2284 18.0881 9.09811 12.8173
internal_count=191 149 126 95 74 42 52
is_linear=0
shrinkage=0.01


Tree=78
num_leaves=8
num_cat=0
split_feature=6 1 6 6 5 6 3
split_gain=3.89049 2.69441 1.74103 2.45485 1.42708 0.791283 0.65664
threshold=0.86118665461072497 0.86515637413741031 0.20385303115083775 -0.78214740403899186 0.015562322642403448 -1.2751476216339064 0.18298174142794277
decision_type=2 2 2 2 2 2 2
left_child=1 2 3 5 -2 -1 -5
right_child=4 -3 -4 6 -6 -7 -8
leaf_value=0.0010253611359321328 -0.0098970587402805541 -0.0051779358172257877 0.0063667534885840787 -0.00020152203170101224 -0.0019659677041403588 0.0062398302024962871 -0.0052053169319838588
leaf_weight=4.9065980464220038 4.5880727618932706 5.3983677327632895 8.393380254507063 5.7512800246477163 4.4879672527313232 7.1520166248083124 4.8209115713834763
leaf_count=20 22 22 34 24 20 29 20
internal_value=0 0.00134233 0.00247689 0.00103421 -0.00597525 0.00411809 -0.00248325
internal_weight=0 36.4226 31.0242 22.6308 9.07604 12.0586 10.5722
internal_count=191 149 127 93 42 49 44
is_linear=0
shrinkage=0.01


Tree=79
num_leaves=8
num_cat=0
split_feature=6 1 6 6 5 6 3
split_gain=3.82074 2.64182 1.70568 2.40675 1.40918 0.776199 0.644317
threshold=0.86118665461072497 0.86515637413741031 0.20385303115083775 -0.78214740403899186 0.015562322642403448 -1.2751476216339064 0.18298174142794277
decision_type=2 2 2 2 2 2 2
left_child=1 2 3 5 -2 -1 -5
right_child=4 -3 -4 6 -6 -7 -8
leaf_value=0.0010151579496018458 -0.0098377362094146555 -0.005129077604110791 0.0063023298599248594 -0.00019951277887630069 -0.0019474953042140895 0.0061802369247703848 -0.005157187921037568
leaf_weight=4.9063538908958426 4.5696742087602598 5.3953086733818045 8.3943818360567075 5.7511033862829244 4.4852445721626282 7.148786887526513 4.8172619789838791
leaf_count=20 22 22 34 24 20 29 20
internal_value=0 0.00132925 0.00245262 0.0010242 -0.0059294 0.00407809 -0.00245932
internal_weight=0 36.4132 31.0179 22.6235 9.05492 12.0551 10.5684
internal_count=191 149 127 93 42 49 44
is_linear=0
shrinkage=0.01


Tree=80
num_leaves=8
num_cat=0
split_feature=2 1 1 2 6 0 0
split_gain=2.77327 2.31186 3.3529 2.47407 1.8373 1.72694 1.66853
threshold=1.1553715908320721 0.30686633924690782 -0.19559469215454453 -0.70097856324239671 0.20385303115083775 0.36142502746289201 -0.50516564297461219
decision_type=2 2 2 2 2 2 2
left_child=1 2 3 -1 -3 -6 -5
right_child=-2 4 -4 6 5 -7 -8
leaf_value=0.0041778425273291241 0.0067158346714195211 -0.0090433193335101008 0.0081574909834413196 -0.007896393669322441 -0.0062978912672216969 0.002057356806983472 0.00019233406690514595
leaf_weight=5.6977218836545935 5.417062133550643 4.8301340192556372 5.1829186826944378 5.3564002215862248 4.3470626622438413 5.7404770106077194 4.8677507340908059
leaf_count=24 22 20 22 22 20 24 20
internal_value=0 -0.000958396 0.00117148 -0.00110262 -0.00397164 -0.0015432 -0.00404532
internal_weight=0 36.0225 21.1048 15.9219 14.9177 10.0875 10.2242
internal_count=174 152 88 66 64 44 42
is_linear=0
shrinkage=0.01


Tree=81
num_leaves=7
num_cat=0
split_feature=2 1 3 2 6 3
split_gain=2.71869 2.26781 3.40087 5.34279 1.80449 2.39104
threshold=1.1553715908320721 0.30686633924690782 -0.41145010266038923 -0.70097856324239671 0.20385303115083775 0.42909824830338589
decision_type=2 2 2 2 2 2
left_child=1 2 3 -1 -3 -6
right_child=-2 4 -4 -5 5 -7
leaf_value=0.0042492378768595861 0.006650142793107874 -0.0089661154622787884 0.0062206516285360312 -0.008594716109171634 -0.0063089254078304499 0.0034330406018210223
leaf_weight=6.631695240736005 5.4158734679222098 4.8230428695678702 8.1505928635597247 6.3301209360361108 5.1345237046480161 4.9465155154466629
leaf_count=28 22 20 34 26 23 21
internal_value=0 -0.000949 0.00115932 -0.00202332 -0.00393555 -0.00152878
internal_weight=0 36.0165 21.1124 12.9618 14.9041 10.081
internal_count=174 152 88 54 64 44
is_linear=0
shrinkage=0.01


Tree=82
num_leaves=8
num_cat=0
split_feature=2 1 1 2 6 0 0
split_gain=2.66525 2.22448 3.23269 2.38242 1.77251 1.67096 1.58993
threshold=1.1553715908320721 0.30686633924690782 -0.19559469215454453 -0.70097856324239671 0.20385303115083775 0.36142502746289201 -0.50516564297461219
decision_type=2 2 2 2 2 2 2
left_child=1 2 3 -1 -3 -6 -5
right_child=-2 4 -4 6 5 -7 -8
leaf_value=0.0040901026912123937 0.0065852203752943461 -0.0088898019596084215 0.0079955402033302266 -0.0077405497603680795 -0.006204125317980742 0.0020218508537005529 0.00015798465380710691
leaf_weight=5.7025050520896903 5.4145814776420584 4.8158375024795523 5.196866542100909 5.3501909077167484 4.3313574492931348 5.7444043904542923 4.8667128384113321
leaf_count=24 22 20 22 22 20 24 20
internal_value=0 -0.00093976 0.00114751 -0.00108803 -0.0038995 -0.00151432 -0.00397817
internal_weight=0 36.0079 21.1163 15.9194 14.8916 10.0758 10.2169
internal_count=174 152 88 66 64 44 42
is_linear=0
shrinkage=0.01


Tree=83
num_leaves=7
num_cat=0
split_feature=2 1 3 2 6 3
split_gain=2.61289 2.18215 3.28864 5.14769 1.74101 2.32209
threshold=1.1553715908320721 0.30686633924690782 -0.41145010266038923 -0.70097856324239671 0.20385303115083775 0.42909824830338589
decision_type=2 2 2 2 2 2
left_child=1 2 3 -1 -3 -6
right_child=-2 4 -4 -5 5 -7
leaf_value=0.0041558248574538473 0.0065210532873566322 -0.0088143590719920017 0.0061090718509872466 -0.0084508999509923018 -0.0062229716087616538 0.0033827768608808368
leaf_weight=6.638845041394231 5.4131892770528784 4.8085228055715552 8.1595920324325579 6.3246712237596521 5.1185654699802381 4.9506741166114807
leaf_count=28 22 20 34 26 23 21
internal_value=0 -0.000930574 0.00113564 -0.00199477 -0.00386414 -0.00150018
internal_weight=0 36.0009 21.1231 12.9635 14.8778 10.0692
internal_count=174 152 88 54 64 44
is_linear=0
shrinkage=0.01


Tree=84
num_leaves=7
num_cat=0
split_feature=2 1 3 2 6 3
split_gain=2.56162 2.1405 3.22226 5.04658 1.71029 2.27872
threshold=1.1553715908320721 0.30686633924690782 -0.41145010266038923 -0.70097856324239671 0.20385303115083775 0.42909824830338589
decision_type=2 2 2 2 2 2
left_child=1 2 3 -1 -3 -6
right_child=-2 4 -4 -5 5 -7
leaf_value=0.0041123438225347314 0.006457627499608265 -0.0087397683935161903 0.0060460382122462519 -0.0083698724058457741 -0.0061713090778973672 0.0033466604241541675
leaf_weight=6.641933307051656 5.411700263619422 4.8011033684015265 8.1622007787227648 6.32205355167389 5.1098446995019895 4.9540423452854156
leaf_count=28 22 20 34 26 23 21
internal_value=0 -0.000921541 0.00112411 -0.00197477 -0.00382883 -0.001486
internal_weight=0 35.9912 21.1262 12.964 14.865 10.0639
internal_count=174 152 88 54 64 44
is_linear=0
shrinkage=0.01


Tree=85
num_leaves=7
num_cat=0
split_feature=1 2 0 1 1 1
split_gain=2.84923 4.54096 3.4026 2.14522 1.06153 2.54704
threshold=-0.4189107061107456 -0.15094888796107273 0.36142502746289201 0.13937932877975698 0.976814381115511 0.5301823532031088
decision_type=2 2 2 2 2 2
left_child=1 -1 3 -2 5 -4
right_child=2 -3 4 -5 -6 -7
leaf_value=-0.0019279712086851637 -0.010911253616734602 0.0089490777018733023 -0.0030186286048256425 -0.0025251369264144641 -0.0027542324550434206 0.006565160489871086
leaf_weight=8.4513497650623304 5.548380911350252 7.0315722227096549 4.9152901619672793 6.7751590758562088 6.2321490049362174 6.3627619445323944
leaf_count=35 24 29 20 31 26 26
internal_value=0 0.00301184 -0.0022752 -0.00630079 0.000557979 0.00238828
internal_weight=0 15.4829 29.8337 12.3235 17.5102 11.2781
internal_count=191 64 127 55 72 46
is_linear=0
shrinkage=0.01


Tree=86
num_leaves=7
num_cat=0
split_feature=6 2 6 1 2 2
split_gain=3.65969 1.81289 2.96283 5.35066 3.53642 2.83136
threshold=1.0255200604756978 1.1553715908320721 0.20385303115083775 -0.4189107061107456 -0.15094888796107273 -0.15094888796107273
decision_type=2 2 2 2 2 2
left_child=1 2 3 5 -4 -1
right_child=-2 -3 4 -5 -6 -7
leaf_value=-0.003123455698728413 -0.0072352994696933725 0.0060819318008934545 -0.00080357880341785112 -0.0081262224380591903 0.0097882169739005216 0.0071377263550215508
leaf_weight=5.1521882712840998 6.786566585302352 5.4340046644210807 7.6396200209856033 9.2819053679704684 5.3666893094778043 5.6247706115245837
leaf_count=21 32 22 32 39 22 23
internal_value=0 0.000729084 -0.000150615 -0.00256103 0.00356683 0.00223212
internal_weight=0 38.4992 33.0652 20.0589 13.0063 10.777
internal_count=191 159 137 83 54 44
is_linear=0
shrinkage=0.01


Tree=87
num_leaves=7
num_cat=0
split_feature=6 2 2 6 2 0
split_gain=3.59647 1.83351 6.31611 3.38277 2.83444 5.11493
threshold=1.0255200604756978 -0.70097856324239671 -0.15094888796107273 0.20385303115083775 1.1553715908320721 1.0000000180025095e-35
decision_type=2 2 2 2 2 2
left_child=1 -1 -3 4 5 -4
right_child=-2 2 3 -5 -6 -7
leaf_value=0.0055429804115925043 -0.0071825826063540476 -0.0080583397907084946 0.0052681821448024588 0.0088769863510885956 0.0066179727785393621 -0.0073747911198711151
leaf_weight=6.5470732897520056 6.7681058794260016 7.8462889790535 5.3751277923584038 5.8660888671874991 4.9336235970258704 7.9073642939329147
leaf_count=27 32 33 22 24 20 33
internal_value=0 0.000722225 -0.000266292 0.00227246 0.000145617 -0.00225846
internal_weight=0 38.4756 31.9285 24.0822 18.2161 13.2825
internal_count=191 159 132 99 75 55
is_linear=0
shrinkage=0.01


Tree=88
num_leaves=7
num_cat=0
split_feature=1 2 0 1 1 1
split_gain=2.72403 4.33933 3.26245 2.11668 1.02768 2.48572
threshold=-0.4189107061107456 -0.15094888796107273 0.36142502746289201 0.13937932877975698 0.976814381115511 0.5301823532031088
decision_type=2 2 2 2 2 2
left_child=1 -1 3 -2 5 -4
right_child=2 -3 4 -5 -6 -7
leaf_value=-0.0018788664971984912 -0.010771831056885046 0.0087668591276863946 -0.0029984267096169631 -0.0024210675497322153 -0.0027148168983072772 0.0064737274876377395
leaf_weight=8.4397854506969434 5.5194319337606448 7.0083760619163504 4.9077619612216967 6.7440990507602692 6.2207927554845801 6.3617591559886932
leaf_count=35 24 29 20 31 26 26
internal_value=0 0.00295079 -0.00222499 -0.00617949 0.000547756 0.0023487
internal_weight=0 15.4482 29.7538 12.2635 17.4903 11.2695
internal_count=191 64 127 55 72 46
is_linear=0
shrinkage=0.01


Tree=89
num_leaves=7
num_cat=0
split_feature=6 2 2 6 2 0
split_gain=3.51496 1.82287 6.14633 3.31425 2.78711 4.94392
threshold=1.0255200604756978 -0.70097856324239671 -0.15094888796107273 0.20385303115083775 1.1553715908320721 1.0000000180025095e-35
decision_type=2 2 2 2 2 2
left_child=1 -1 -3 4 5 -4
right_child=-2 2 3 -5 -6 -7
leaf_value=0.0055231412549320872 -0.0071113867113638653 -0.0079662373280335926 0.0051454342195774647 0.0087709931603296796 0.006546427546483641 -0.0072959512670297856
leaf_weight=6.5461301505565634 6.7426190674304953 7.8291319459676769 5.3656394481658989 5.8657196164131156 4.9295378178358069 7.891609400510788
leaf_count=27 32 33 22 24 20 33
internal_value=0 0.000716598 -0.00027031 0.00223473 0.000126609 -0.00226052
internal_weight=0 38.4278 31.8816 24.0525 18.1868 13.2572
internal_count=191 159 132 99 75 55
is_linear=0
shrinkage=0.01


Tree=90
num_leaves=7
num_cat=0
split_feature=6 2 2 2 5 2
split_gain=5.79395 2.38785 3.92722 1.50846 1.27935 1.16945
threshold=0.69685324874575405 0.67409562496091346 0.26157336849992036 -0.28845630678140372 0.86153063886251802 -0.90723969147289329
decision_type=2 2 2 2 2 2
left_child=1 2 3 -1 -3 -2
right_child=5 4 -4 -5 -6 -7
leaf_value=-0.0008103926290610945 -0.010652191632244574 0.0091213545141520316 -0.0075551937878541846 0.0055816164493225576 0.0019845879731347337 -0.0042930996685455122
leaf_weight=7.8193532228469858 4.6086503714323044 4.8697044849395734 5.7079261243343344 6.99451664090157 5.187613844871521 7.7637842297553998
leaf_count=32 22 20 24 29 21 34
internal_value=0 0.00144847 -0.000507778 0.00220766 0.00544018 -0.00666182
internal_weight=0 30.5791 20.5218 14.8139 10.0573 12.3724
internal_count=182 126 85 61 41 56
is_linear=0
shrinkage=0.01


Tree=91
num_leaves=7
num_cat=0
split_feature=6 2 2 2 5 2
split_gain=5.69022 2.34083 3.85031 1.4782 1.25531 1.15594
threshold=0.69685324874575405 0.67409562496091346 0.26157336849992036 -0.28845630678140372 0.86153063886251802 -0.90723969147289329
decision_type=2 2 2 2 2 2
left_child=1 2 3 -1 -3 -2
right_child=5 4 -4 -5 -6 -7
leaf_value=-0.00080234276754281256 -0.010586338709834206 0.0090346695896718239 -0.0074825849148237519 0.0055251146600658772 0.0019645502289292647 -0.0042551203331482939
leaf_weight=7.8188292682170877 4.5910341292619705 4.8672758489847165 5.7056921720504752 6.995380282402043 5.1881176233291626 7.7547945678234083
leaf_count=32 22 20 24 29 21 34
internal_value=0 0.00143417 -0.000502752 0.00218553 0.00538682 -0.00660951
internal_weight=0 30.5753 20.5199 14.8142 10.0554 12.3458
internal_count=182 126 85 61 41 56
is_linear=0
shrinkage=0.01


Tree=92
num_leaves=7
num_cat=0
split_feature=6 2 2 2 5 2
split_gain=5.58838 2.29478 3.77497 1.44857 1.23179 1.14263
threshold=0.69685324874575405 0.67409562496091346 0.26157336849992036 -0.28845630678140372 0.86153063886251802 -0.90723969147289329
decision_type=2 2 2 2 2 2
left_child=1 2 3 -1 -3 -2
right_child=5 4 -4 -5 -6 -7
leaf_value=-0.00079437262383445263 -0.01052111146574055 0.0089491080865060132 -0.0074108269995242764 0.0054692674774813608 0.0019447206398865058 -0.0042174680844053554
leaf_weight=7.8183080852031717 4.5733905881643295 4.8646860569715482 5.7033420056104651 6.9961386620998427 5.1886066496372223 7.7458320111036283
leaf_count=32 22 20 24 29 21 34
internal_value=0 0.00142002 -0.000497782 0.00216364 0.00533407 -0.00655763
internal_weight=0 30.5711 20.5178 14.8144 10.0533 12.3192
internal_count=182 126 85 61 41 56
is_linear=0
shrinkage=0.01


Tree=93
num_leaves=7
num_cat=0
split_feature=6 2 2 2 5 2
split_gain=5.48839 2.24968 3.70117 1.41956 1.20879 1.12952
threshold=0.69685324874575405 0.67409562496091346 0.26157336849992036 -0.28845630678140372 0.86153063886251802 -0.90723969147289329
decision_type=2 2 2 2 2 2
left_child=1 2 3 -1 -3 -2
right_child=5 4 -4 -5 -6 -7
leaf_value=-0.00078648137769450166 -0.010456495986253622 0.0088646456439577474 -0.0073399037386070818 0.0054140644570892776 0.0019250962344690412 -0.0041801393367003189
leaf_weight=7.8177897334098825 4.5557239204645157 4.861940383911131 5.7008794844150534 6.9967948645353362 5.1890810430049896 7.736897334456442
leaf_count=32 22 20 24 29 21 34
internal_value=0 0.00140603 -0.000492865 0.00214198 0.00528194 -0.0065062
internal_weight=0 30.5665 20.5155 14.8146 10.051 12.2926
internal_count=182 126 85 61 41 56
is_linear=0
shrinkage=0.01


Tree=94
num_leaves=7
num_cat=0
split_feature=6 2 2 2 5 2
split_gain=5.39022 2.2055 3.62888 1.39115 1.1863 1.11661
threshold=0.69685324874575405 0.67409562496091346 0.26157336849992036 -0.28845630678140372 0.86153063886251802 -0.90723969147289329
decision_type=2 2 2 2 2 2
left_child=1 2 3 -1 -3 -2
right_child=5 4 -4 -5 -6 -7
leaf_value=-0.00077866786562066372 -0.010392478004595709 0.0087812560829628791 -0.0072697993737337561 0.0053594949959200576 0.0019056751823177474 -0.0041431309930372038
leaf_weight=7.8172742724418649 4.5380382984876633 4.8590440452098829 5.6983084529638282 6.9973517209291503 5.1895414292812347 7.7279915362596494
leaf_count=32 22 20 24 29 21 34
internal_value=0 0.0013922 -0.000488002 0.00212055 0.0052304 -0.00645519
internal_weight=0 30.5615 20.5129 14.8146 10.0486 12.266
internal_count=182 126 85 61 41 56
is_linear=0
shrinkage=0.01


Tree=95
num_leaves=7
num_cat=0
split_feature=2 4 2 6 2 0
split_gain=4.2285 3.19736 3.9392 1.94175 4.00364 0.458805
threshold=0.67409562496091346 0.18322265207936467 -0.15094888796107273 0.94335335754321081 -0.70097856324239671 1.0251966048192784
decision_type=2 2 2 2 2 2
left_child=1 2 3 4 -1 -2
right_child=5 -3 -4 -5 -6 -7
leaf_value=0.0086949737562964664 0.0094474707433333735 -0.0054857208373132365 0.0094183058332674707 -0.0052119205931119303 -0.0033332712764612233 0.0052110016473817002
leaf_weight=4.9448010027408644 5.3150733262300474 7.915280580520629 5.3223487883806255 5.6783984750509253 6.283967837691308 4.9251625537872314
leaf_count=20 22 34 22 28 26 20
internal_value=0 -2.78697e-05 0.00191551 -0.000446356 0.00196359 0.00740989
internal_weight=0 30.1448 22.2295 16.9072 11.2288 10.2402
internal_count=172 130 96 74 46 42
is_linear=0
shrinkage=0.01


end of trees

feature_importances:
Column_6=170
Column_2=152
Column_1=105
Column_3=63
Column_0=40
Column_4=34
Column_5=24

parameters:
[boosting: gbdt]
[objective: binary]
[metric: binary_logloss]
[tree_learner: serial]
[device_type: cpu]
[data_sample_strategy: bagging]
[data: ]
[valid: ]
[num_iterations: 500]
[learning_rate: 0.01]
[num_leaves: 31]
[num_threads: 0]
[seed: 0]
[deterministic: 0]
[force_col_wise: 0]
[force_row_wise: 0]
[histogram_pool_size: -1]
[max_depth: -1]
[min_data_in_leaf: 20]
[min_sum_hessian_in_leaf: 0.001]
[bagging_fraction: 0.8]
[pos_bagging_fraction: 1]
[neg_bagging_fraction: 1]
[bagging_freq: 5]
[bagging_seed: 3]
[feature_fraction: 0.8]
[feature_fraction_bynode: 1]
[feature_fraction_seed: 2]
[extra_trees: 0]
[extra_seed: 6]
[early_stopping_round: 0]
[early_stopping_min_delta: 0]
[first_metric_only: 0]
[max_delta_step: 0]
[lambda_l1: 0]
[lambda_l2: 0]
[linear_lambda: 0]
[min_gain_to_split: 0]
[drop_rate: 0.1]
[max_drop: 50]
[skip_drop: 0.5]
[xgboost_dart_mode: 0]
[uniform_drop: 0]
[drop_seed: 4]
[top_rate: 0.2]
[other_rate: 0.1]
[min_data_per_group: 100]
[max_cat_threshold: 32]
[cat_l2: 10]
[cat_smooth: 10]
[max_cat_to_onehot: 4]
[top_k: 20]
[monotone_constraints: ]
[monotone_constraints_method: basic]
[monotone_penalty: 0]
[feature_contri: ]
[forcedsplits_filename: ]
[refit_decay_rate: 0.9]
[cegb_tradeoff: 1]
[cegb_penalty_split: 0]
[cegb_penalty_feature_lazy: ]
[cegb_penalty_feature_coupled: ]
[path_smooth: 0]
[interaction_constraints: ]
[verbosity: -1]
[saved_feature_importance_type: 0]
[use_quantized_grad: 0]
[num_grad_quant_bins: 4]
[quant_train_renew_leaf: 0]
[stochastic_rounding: 1]
[linear_tree: 0]
[max_bin: 255]
[max_bin_by_feature: ]
[min_data_in_bin: 3]
[bin_construct_sample_cnt: 200000]
[data_random_seed: 1]
[is_enable_sparse: 1]
[enable_bundle: 1]
[use_missing: 1]
[zero_as_missing: 0]
[feature_pre_filter: 1]
[pre_partition: 0]
[two_round: 0]
[header: 0]
[label_column: ]
[weight_column: ]
[group_column: ]
[ignore_column: ]
[categorical_feature: ]
[forcedbins_filename: ]
[precise_float_parser: 0]
[parser_config_file: ]
[objective_seed: 5]
[num_class: 1]
[is_unbalance: 0]
[scale_pos_weight: 1]
[sigmoid: 1]
[boost_from_average: 1]
[reg_sqrt: 0]
[alpha: 0.9]
[fair_c: 1]
[poisson_max_delta_step: 0.7]
[tweedie_variance_power: 1.5]
[lambdarank_truncation_level: 30]
[lambdarank_norm: 1]
[label_gain: ]
[lambdarank_position_bias_regularization: 0]
[eval_at: ]
[multi_error_top_k: 1]
[auc_mu_weights: ]
[num_machines: 1]
[local_listen_port: 12400]
[time_out: 120]
[machine_list_filename: ]
[machines: ]
[gpu_platform_id: -1]
[gpu_device_id: -1]
[gpu_use_dp: 0]
[num_gpu: 1]

end of parameters

pandas_categorical:null
